<?xml version="1.0"?>
<opencv_storage>
<cascade>
  <stageType>BOOST</stageType>
  <featureType>HAAR</featureType>
  <height>50</height>
  <width>50</width>
  <stageParams>
    <boostType>GAB</boostType>
    <minHitRate>9.9900001287460327e-01</minHitRate>
    <maxFalseAlarm>9.9999997764825821e-03</maxFalseAlarm>
    <weightTrimRate>9.4999999999999996e-01</weightTrimRate>
    <maxDepth>1</maxDepth>
    <maxWeakCount>100</maxWeakCount></stageParams>
  <featureParams>
    <maxCatCount>0</maxCatCount>
    <featSize>1</featSize>
    <mode>ALL</mode></featureParams>
  <stageNum>9</stageNum>
  <stages>
    <!-- stage 0 -->
    <_>
      <maxWeakCount>28</maxWeakCount>
      <stageThreshold>1.3446553051471710e-01</stageThreshold>
      <weakClassifiers>
        <_>
          <internalNodes>
            0 -1 266 -5.1895007491111755e-03</internalNodes>
          <leafValues>
            7.0042192935943604e-01 -2.9710143804550171e-01</leafValues></_>
        <_>
          <internalNodes>
            0 -1 8 -1.4599491655826569e-01</internalNodes>
          <leafValues>
            5.8026999235153198e-01 -3.8430798053741455e-01</leafValues></_>
        <_>
          <internalNodes>
            0 -1 164 -2.1270429715514183e-04</internalNodes>
          <leafValues>
            7.3287218809127808e-01 -2.7101778984069824e-01</leafValues></_>
        <_>
          <internalNodes>
            0 -1 181 -8.3968479884788394e-05</internalNodes>
          <leafValues>
            4.7269496321678162e-01 -4.4220218062400818e-01</leafValues></_>
        <_>
          <internalNodes>
            0 -1 68 1.6324258467648178e-05</internalNodes>
          <leafValues>
            -4.5837706327438354e-01 4.4460973143577576e-01</leafValues></_>
        <_>
          <internalNodes>
            0 -1 34 1.2948929797858000e-03</internalNodes>
          <leafValues>
            -3.9047837257385254e-01 4.6135890483856201e-01</leafValues></_>
        <_>
          <internalNodes>
            0 -1 170 -1.5744330084999092e-05</internalNodes>
          <leafValues>
            4.6773821115493774e-01 -3.9734992384910583e-01</leafValues></_>
        <_>
          <internalNodes>
            0 -1 29 5.6620733812451363e-03</internalNodes>
          <leafValues>
            -2.4850352108478546e-01 6.5498191118240356e-01</leafValues></_>
        <_>
          <internalNodes>
            0 -1 334 -8.9751985797192901e-05</internalNodes>
          <leafValues>
            5.0843334197998047e-01 -3.6331230401992798e-01</leafValues></_>
        <_>
          <internalNodes>
            0 -1 157 -1.7976457020267844e-03</internalNodes>
          <leafValues>
            6.1354833841323853e-01 -2.7579712867736816e-01</leafValues></_>
        <_>
          <internalNodes>
            0 -1 251 -2.0072100596735254e-05</internalNodes>
          <leafValues>
            4.6895536780357361e-01 -4.4030535221099854e-01</leafValues></_>
        <_>
          <internalNodes>
            0 -1 267 -9.9196215160191059e-04</internalNodes>
          <leafValues>
            6.4179527759552002e-01 -2.6524072885513306e-01</leafValues></_>
        <_>
          <internalNodes>
            0 -1 25 4.6330349869094789e-04</internalNodes>
          <leafValues>
            -2.7507379651069641e-01 5.6628817319869995e-01</leafValues></_>
        <_>
          <internalNodes>
            0 -1 178 -1.4943175483494997e-03</internalNodes>
          <leafValues>
            -6.9207888841629028e-01 2.5895497202873230e-01</leafValues></_>
        <_>
          <internalNodes>
            0 -1 222 -5.0764868501573801e-04</internalNodes>
          <leafValues>
            6.8330293893814087e-01 -2.5470086932182312e-01</leafValues></_>
        <_>
          <internalNodes>
            0 -1 149 -3.0568575311917812e-05</internalNodes>
          <leafValues>
            3.9665162563323975e-01 -4.2707470059394836e-01</leafValues></_>
        <_>
          <internalNodes>
            0 -1 190 -1.1725384683813900e-04</internalNodes>
          <leafValues>
            -7.1126139163970947e-01 2.2698093950748444e-01</leafValues></_>
        <_>
          <internalNodes>
            0 -1 328 -1.7722989432513714e-03</internalNodes>
          <leafValues>
            8.1426990032196045e-01 -2.2108760476112366e-01</leafValues></_>
        <_>
          <internalNodes>
            0 -1 13 1.5332616749219596e-04</internalNodes>
          <leafValues>
            -2.6235792040824890e-01 5.6341856718063354e-01</leafValues></_>
        <_>
          <internalNodes>
            0 -1 342 3.0027906177565455e-05</internalNodes>
          <leafValues>
            -2.5421482324600220e-01 5.9458333253860474e-01</leafValues></_>
        <_>
          <internalNodes>
            0 -1 244 -1.7301421612501144e-03</internalNodes>
          <leafValues>
            4.3793851137161255e-01 -3.9185452461242676e-01</leafValues></_>
        <_>
          <internalNodes>
            0 -1 212 -2.6831671129912138e-04</internalNodes>
          <leafValues>
            -7.8643262386322021e-01 2.2700898349285126e-01</leafValues></_>
        <_>
          <internalNodes>
            0 -1 95 -1.9225295545766130e-05</internalNodes>
          <leafValues>
            3.7147432565689087e-01 -4.3728595972061157e-01</leafValues></_>
        <_>
          <internalNodes>
            0 -1 28 1.7092062626034021e-04</internalNodes>
          <leafValues>
            -2.9952582716941833e-01 6.0194277763366699e-01</leafValues></_>
        <_>
          <internalNodes>
            0 -1 282 -3.0855750665068626e-03</internalNodes>
          <leafValues>
            5.5649787187576294e-01 -2.8020691871643066e-01</leafValues></_>
        <_>
          <internalNodes>
            0 -1 98 -6.8266926973592490e-05</internalNodes>
          <leafValues>
            4.3310385942459106e-01 -3.8046103715896606e-01</leafValues></_>
        <_>
          <internalNodes>
            0 -1 158 5.7979328557848930e-03</internalNodes>
          <leafValues>
            -3.0886623263359070e-01 5.4179465770721436e-01</leafValues></_>
        <_>
          <internalNodes>
            0 -1 116 -1.0931135155260563e-02</internalNodes>
          <leafValues>
            8.3821761608123779e-01 -2.3521636426448822e-01</leafValues></_></weakClassifiers></_>
    <!-- stage 1 -->
    <_>
      <maxWeakCount>28</maxWeakCount>
      <stageThreshold>1.3657501339912415e-01</stageThreshold>
      <weakClassifiers>
        <_>
          <internalNodes>
            0 -1 45 1.1499857157468796e-01</internalNodes>
          <leafValues>
            -1.0994764417409897e-01 7.9347825050354004e-01</leafValues></_>
        <_>
          <internalNodes>
            0 -1 137 4.3158143758773804e-02</internalNodes>
          <leafValues>
            -1.5828996896743774e-01 6.7637419700622559e-01</leafValues></_>
        <_>
          <internalNodes>
            0 -1 104 4.2164832353591919e-02</internalNodes>
          <leafValues>
            -2.9710054397583008e-01 6.5768337249755859e-01</leafValues></_>
        <_>
          <internalNodes>
            0 -1 113 8.0427071079611778e-03</internalNodes>
          <leafValues>
            -1.8855464458465576e-01 7.0485997200012207e-01</leafValues></_>
        <_>
          <internalNodes>
            0 -1 44 -3.6739554256200790e-02</internalNodes>
          <leafValues>
            6.0879772901535034e-01 -2.4862320721149445e-01</leafValues></_>
        <_>
          <internalNodes>
            0 -1 22 9.0427957475185394e-03</internalNodes>
          <leafValues>
            -2.1955972909927368e-01 6.3682085275650024e-01</leafValues></_>
        <_>
          <internalNodes>
            0 -1 248 6.0134585946798325e-03</internalNodes>
          <leafValues>
            -2.4349685013294220e-01 5.5410557985305786e-01</leafValues></_>
        <_>
          <internalNodes>
            0 -1 221 5.6880218908190727e-03</internalNodes>
          <leafValues>
            -1.9529756903648376e-01 6.8694424629211426e-01</leafValues></_>
        <_>
          <internalNodes>
            0 -1 206 -3.7094941362738609e-03</internalNodes>
          <leafValues>
            5.2430093288421631e-01 -2.6524347066879272e-01</leafValues></_>
        <_>
          <internalNodes>
            0 -1 179 -8.8715951278572902e-06</internalNodes>
          <leafValues>
            3.4902521967887878e-01 -4.4798001646995544e-01</leafValues></_>
        <_>
          <internalNodes>
            0 -1 167 2.7742949896492064e-04</internalNodes>
          <leafValues>
            2.2767189145088196e-01 -6.9877487421035767e-01</leafValues></_>
        <_>
          <internalNodes>
            0 -1 233 1.4886206015944481e-02</internalNodes>
          <leafValues>
            -2.8371933102607727e-01 5.8549839258193970e-01</leafValues></_>
        <_>
          <internalNodes>
            0 -1 306 2.1218103356659412e-03</internalNodes>
          <leafValues>
            -2.1285943686962128e-01 6.8217200040817261e-01</leafValues></_>
        <_>
          <internalNodes>
            0 -1 217 -2.7853727340698242e-02</internalNodes>
          <leafValues>
            7.4542909860610962e-01 -1.8354928493499756e-01</leafValues></_>
        <_>
          <internalNodes>
            0 -1 88 2.3558942601084709e-02</internalNodes>
          <leafValues>
            -1.8117971718311310e-01 7.0305520296096802e-01</leafValues></_>
        <_>
          <internalNodes>
            0 -1 18 2.0538587123155594e-03</internalNodes>
          <leafValues>
            -2.4210302531719208e-01 5.6791126728057861e-01</leafValues></_>
        <_>
          <internalNodes>
            0 -1 168 9.4406362622976303e-03</internalNodes>
          <leafValues>
            -2.0264232158660889e-01 7.3848021030426025e-01</leafValues></_>
        <_>
          <internalNodes>
            0 -1 324 7.7018141746520996e-04</internalNodes>
          <leafValues>
            -1.6460247337818146e-01 6.8653333187103271e-01</leafValues></_>
        <_>
          <internalNodes>
            0 -1 124 3.6709485575556755e-03</internalNodes>
          <leafValues>
            -2.1952219307422638e-01 5.9053617715835571e-01</leafValues></_>
        <_>
          <internalNodes>
            0 -1 115 1.7447533085942268e-02</internalNodes>
          <leafValues>
            -2.7951350808143616e-01 5.2577996253967285e-01</leafValues></_>
        <_>
          <internalNodes>
            0 -1 24 2.8238421678543091e-01</internalNodes>
          <leafValues>
            -1.7753440141677856e-01 7.6657986640930176e-01</leafValues></_>
        <_>
          <internalNodes>
            0 -1 274 1.0651725460775197e-04</internalNodes>
          <leafValues>
            2.3435980081558228e-01 -6.5491056442260742e-01</leafValues></_>
        <_>
          <internalNodes>
            0 -1 293 -3.1189688015729189e-03</internalNodes>
          <leafValues>
            6.1004859209060669e-01 -2.7683156728744507e-01</leafValues></_>
        <_>
          <internalNodes>
            0 -1 298 -1.1768918193411082e-04</internalNodes>
          <leafValues>
            5.2058422565460205e-01 -2.7721643447875977e-01</leafValues></_>
        <_>
          <internalNodes>
            0 -1 162 1.5407923609018326e-02</internalNodes>
          <leafValues>
            -2.8211453557014465e-01 5.5853480100631714e-01</leafValues></_>
        <_>
          <internalNodes>
            0 -1 236 -2.4889516225812258e-06</internalNodes>
          <leafValues>
            3.9043930172920227e-01 -3.5597053170204163e-01</leafValues></_>
        <_>
          <internalNodes>
            0 -1 262 -2.9157588258385658e-02</internalNodes>
          <leafValues>
            8.1990170478820801e-01 -1.7013789713382721e-01</leafValues></_>
        <_>
          <internalNodes>
            0 -1 143 1.4406463596969843e-03</internalNodes>
          <leafValues>
            -2.0119406282901764e-01 6.1289995908737183e-01</leafValues></_></weakClassifiers></_>
    <!-- stage 2 -->
    <_>
      <maxWeakCount>35</maxWeakCount>
      <stageThreshold>3.1258437782526016e-02</stageThreshold>
      <weakClassifiers>
        <_>
          <internalNodes>
            0 -1 2 4.2494691908359528e-02</internalNodes>
          <leafValues>
            -7.0552147924900055e-02 6.4386790990829468e-01</leafValues></_>
        <_>
          <internalNodes>
            0 -1 1 4.6591768041253090e-03</internalNodes>
          <leafValues>
            -1.4863054454326630e-01 6.6775089502334595e-01</leafValues></_>
        <_>
          <internalNodes>
            0 -1 302 3.4773130901157856e-03</internalNodes>
          <leafValues>
            -1.9224187731742859e-01 5.6974446773529053e-01</leafValues></_>
        <_>
          <internalNodes>
            0 -1 102 -2.6016757601610152e-06</internalNodes>
          <leafValues>
            2.9635873436927795e-01 -4.4280338287353516e-01</leafValues></_>
        <_>
          <internalNodes>
            0 -1 77 1.5104815363883972e-02</internalNodes>
          <leafValues>
            -2.1223142743110657e-01 8.0161035060882568e-01</leafValues></_>
        <_>
          <internalNodes>
            0 -1 92 1.9451623782515526e-02</internalNodes>
          <leafValues>
            -2.0862485468387604e-01 6.5426337718963623e-01</leafValues></_>
        <_>
          <internalNodes>
            0 -1 197 -2.6360301035310840e-06</internalNodes>
          <leafValues>
            3.3628097176551819e-01 -3.4271061420440674e-01</leafValues></_>
        <_>
          <internalNodes>
            0 -1 294 6.4133515115827322e-04</internalNodes>
          <leafValues>
            -2.1468701958656311e-01 5.5357009172439575e-01</leafValues></_>
        <_>
          <internalNodes>
            0 -1 209 1.4129272312857211e-04</internalNodes>
          <leafValues>
            1.6581028699874878e-01 -6.4284718036651611e-01</leafValues></_>
        <_>
          <internalNodes>
            0 -1 79 -7.4454955756664276e-04</internalNodes>
          <leafValues>
            5.4151040315628052e-01 -2.1761265397071838e-01</leafValues></_>
        <_>
          <internalNodes>
            0 -1 240 2.6358958333730698e-02</internalNodes>
          <leafValues>
            -2.1429148316383362e-01 4.7276791930198669e-01</leafValues></_>
        <_>
          <internalNodes>
            0 -1 189 -2.6442473881616024e-06</internalNodes>
          <leafValues>
            3.3435899019241333e-01 -3.6935761570930481e-01</leafValues></_>
        <_>
          <internalNodes>
            0 -1 67 5.1543121226131916e-03</internalNodes>
          <leafValues>
            -2.7508705854415894e-01 4.3847274780273438e-01</leafValues></_>
        <_>
          <internalNodes>
            0 -1 125 -8.2204642239958048e-04</internalNodes>
          <leafValues>
            5.1464861631393433e-01 -2.1239127218723297e-01</leafValues></_>
        <_>
          <internalNodes>
            0 -1 264 -2.5222748263331596e-06</internalNodes>
          <leafValues>
            3.4712821245193481e-01 -3.2430839538574219e-01</leafValues></_>
        <_>
          <internalNodes>
            0 -1 5 1.2966637499630451e-02</internalNodes>
          <leafValues>
            -2.5258591771125793e-01 5.2156537771224976e-01</leafValues></_>
        <_>
          <internalNodes>
            0 -1 326 -9.5001007139217108e-05</internalNodes>
          <leafValues>
            4.7782659530639648e-01 -2.3304846882820129e-01</leafValues></_>
        <_>
          <internalNodes>
            0 -1 94 1.1891045869560912e-04</internalNodes>
          <leafValues>
            2.6326438784599304e-01 -4.5284968614578247e-01</leafValues></_>
        <_>
          <internalNodes>
            0 -1 331 1.7067209410015494e-04</internalNodes>
          <leafValues>
            -1.9443351030349731e-01 6.4282166957855225e-01</leafValues></_>
        <_>
          <internalNodes>
            0 -1 27 9.5243267714977264e-02</internalNodes>
          <leafValues>
            -2.3834508657455444e-01 4.9022331833839417e-01</leafValues></_>
        <_>
          <internalNodes>
            0 -1 46 2.9479819349944592e-03</internalNodes>
          <leafValues>
            -1.6714008152484894e-01 7.2617536783218384e-01</leafValues></_>
        <_>
          <internalNodes>
            0 -1 30 -1.7101159319281578e-03</internalNodes>
          <leafValues>
            4.3377643823623657e-01 -2.8196018934249878e-01</leafValues></_>
        <_>
          <internalNodes>
            0 -1 286 -6.6965958103537560e-03</internalNodes>
          <leafValues>
            6.3025504350662231e-01 -2.0587641000747681e-01</leafValues></_>
        <_>
          <internalNodes>
            0 -1 311 7.7515626326203346e-03</internalNodes>
          <leafValues>
            -1.9072282314300537e-01 6.4533489942550659e-01</leafValues></_>
        <_>
          <internalNodes>
            0 -1 85 -6.4093410968780518e-02</internalNodes>
          <leafValues>
            8.5229587554931641e-01 -1.2441892176866531e-01</leafValues></_>
        <_>
          <internalNodes>
            0 -1 108 1.2990464456379414e-02</internalNodes>
          <leafValues>
            -2.8519010543823242e-01 4.4400408864021301e-01</leafValues></_>
        <_>
          <internalNodes>
            0 -1 76 -1.0308345081284642e-03</internalNodes>
          <leafValues>
            4.9697202444076538e-01 -2.3916521668434143e-01</leafValues></_>
        <_>
          <internalNodes>
            0 -1 61 -9.0741016902029514e-04</internalNodes>
          <leafValues>
            5.8996450901031494e-01 -1.8777275085449219e-01</leafValues></_>
        <_>
          <internalNodes>
            0 -1 223 1.5290074981749058e-02</internalNodes>
          <leafValues>
            -2.9086929559707642e-01 4.1705435514450073e-01</leafValues></_>
        <_>
          <internalNodes>
            0 -1 130 -9.7404597909189761e-05</internalNodes>
          <leafValues>
            -6.7450422048568726e-01 1.6776858270168304e-01</leafValues></_>
        <_>
          <internalNodes>
            0 -1 281 4.0491307154297829e-03</internalNodes>
          <leafValues>
            -1.9303503632545471e-01 6.6748714447021484e-01</leafValues></_>
        <_>
          <internalNodes>
            0 -1 254 3.4519590437412262e-02</internalNodes>
          <leafValues>
            -2.0562662184238434e-01 4.9976524710655212e-01</leafValues></_>
        <_>
          <internalNodes>
            0 -1 159 -1.5648804605007172e-02</internalNodes>
          <leafValues>
            7.4098002910614014e-01 -1.6515122354030609e-01</leafValues></_>
        <_>
          <internalNodes>
            0 -1 316 1.6843490302562714e-03</internalNodes>
          <leafValues>
            -2.2500865161418915e-01 5.1570826768875122e-01</leafValues></_>
        <_>
          <internalNodes>
            0 -1 257 2.7770514134317636e-04</internalNodes>
          <leafValues>
            2.6430565118789673e-01 -4.6556365489959717e-01</leafValues></_></weakClassifiers></_>
    <!-- stage 3 -->
    <_>
      <maxWeakCount>34</maxWeakCount>
      <stageThreshold>1.7039890587329865e-01</stageThreshold>
      <weakClassifiers>
        <_>
          <internalNodes>
            0 -1 166 4.8196746502071619e-04</internalNodes>
          <leafValues>
            5.6797331571578979e-01 -6.0132890939712524e-01</leafValues></_>
        <_>
          <internalNodes>
            0 -1 31 6.0736209154129028e-02</internalNodes>
          <leafValues>
            -3.2955563068389893e-01 6.1452686786651611e-01</leafValues></_>
        <_>
          <internalNodes>
            0 -1 219 -1.0923389345407486e-04</internalNodes>
          <leafValues>
            -8.6035102605819702e-01 2.4965339899063110e-01</leafValues></_>
        <_>
          <internalNodes>
            0 -1 192 -2.7515698457136750e-04</internalNodes>
          <leafValues>
            -6.8300026655197144e-01 2.5736162066459656e-01</leafValues></_>
        <_>
          <internalNodes>
            0 -1 172 -2.3418586351908743e-04</internalNodes>
          <leafValues>
            -7.7265894412994385e-01 1.6555570065975189e-01</leafValues></_>
        <_>
          <internalNodes>
            0 -1 87 -2.7886577881872654e-03</internalNodes>
          <leafValues>
            -7.3944991827011108e-01 1.7372259497642517e-01</leafValues></_>
        <_>
          <internalNodes>
            0 -1 305 -9.1162961325608194e-05</internalNodes>
          <leafValues>
            -6.4162796735763550e-01 2.1355417370796204e-01</leafValues></_>
        <_>
          <internalNodes>
            0 -1 228 7.1132555603981018e-05</internalNodes>
          <leafValues>
            2.4250438809394836e-01 -5.9866249561309814e-01</leafValues></_>
        <_>
          <internalNodes>
            0 -1 154 2.4841952836140990e-04</internalNodes>
          <leafValues>
            2.2213223576545715e-01 -7.1076464653015137e-01</leafValues></_>
        <_>
          <internalNodes>
            0 -1 290 8.1867954577319324e-05</internalNodes>
          <leafValues>
            1.5095125138759613e-01 -6.9124531745910645e-01</leafValues></_>
        <_>
          <internalNodes>
            0 -1 260 -2.7235812740400434e-04</internalNodes>
          <leafValues>
            -5.1023632287979126e-01 2.5115346908569336e-01</leafValues></_>
        <_>
          <internalNodes>
            0 -1 96 -9.5416436670348048e-04</internalNodes>
          <leafValues>
            -7.0404320955276489e-01 2.0697413384914398e-01</leafValues></_>
        <_>
          <internalNodes>
            0 -1 20 -4.3612852692604065e-02</internalNodes>
          <leafValues>
            8.2899808883666992e-01 -2.0772650837898254e-01</leafValues></_>
        <_>
          <internalNodes>
            0 -1 97 -2.8416698114597239e-06</internalNodes>
          <leafValues>
            4.0172392129898071e-01 -3.4824293851852417e-01</leafValues></_>
        <_>
          <internalNodes>
            0 -1 81 -1.0967372509185225e-04</internalNodes>
          <leafValues>
            -6.1621987819671631e-01 2.6980656385421753e-01</leafValues></_>
        <_>
          <internalNodes>
            0 -1 193 7.7048120147082955e-05</internalNodes>
          <leafValues>
            2.0632094144821167e-01 -6.3296693563461304e-01</leafValues></_>
        <_>
          <internalNodes>
            0 -1 226 7.5703799666371197e-05</internalNodes>
          <leafValues>
            2.3277676105499268e-01 -6.7818474769592285e-01</leafValues></_>
        <_>
          <internalNodes>
            0 -1 186 -1.1216838902328163e-04</internalNodes>
          <leafValues>
            -5.5068796873092651e-01 2.4848705530166626e-01</leafValues></_>
        <_>
          <internalNodes>
            0 -1 133 1.0029249824583530e-04</internalNodes>
          <leafValues>
            2.6268476247787476e-01 -5.2692389488220215e-01</leafValues></_>
        <_>
          <internalNodes>
            0 -1 128 2.6221008738502860e-04</internalNodes>
          <leafValues>
            1.7473970353603363e-01 -7.4315649271011353e-01</leafValues></_>
        <_>
          <internalNodes>
            0 -1 134 1.2524130940437317e-01</internalNodes>
          <leafValues>
            -1.8819873034954071e-01 8.5577565431594849e-01</leafValues></_>
        <_>
          <internalNodes>
            0 -1 279 1.1489840107969940e-04</internalNodes>
          <leafValues>
            2.6553061604499817e-01 -6.0687834024429321e-01</leafValues></_>
        <_>
          <internalNodes>
            0 -1 38 2.5973829451686470e-06</internalNodes>
          <leafValues>
            -3.4032049775123596e-01 4.1669836640357971e-01</leafValues></_>
        <_>
          <internalNodes>
            0 -1 118 -2.0932756364345551e-02</internalNodes>
          <leafValues>
            6.6270089149475098e-01 -1.9898568093776703e-01</leafValues></_>
        <_>
          <internalNodes>
            0 -1 271 4.7110386192798615e-02</internalNodes>
          <leafValues>
            -2.7985042333602905e-01 5.2557051181793213e-01</leafValues></_>
        <_>
          <internalNodes>
            0 -1 250 -4.2734650196507573e-04</internalNodes>
          <leafValues>
            -6.0667443275451660e-01 2.5240436196327209e-01</leafValues></_>
        <_>
          <internalNodes>
            0 -1 234 7.5584706792142242e-05</internalNodes>
          <leafValues>
            1.7095994949340820e-01 -7.4981248378753662e-01</leafValues></_>
        <_>
          <internalNodes>
            0 -1 48 1.7775732278823853e-01</internalNodes>
          <leafValues>
            -2.0089730620384216e-01 7.7009695768356323e-01</leafValues></_>
        <_>
          <internalNodes>
            0 -1 119 7.6718788477592170e-05</internalNodes>
          <leafValues>
            2.6971742510795593e-01 -5.7029873132705688e-01</leafValues></_>
        <_>
          <internalNodes>
            0 -1 315 7.4171166488667950e-06</internalNodes>
          <leafValues>
            -3.2105994224548340e-01 4.4496273994445801e-01</leafValues></_>
        <_>
          <internalNodes>
            0 -1 73 2.3850268917158246e-04</internalNodes>
          <leafValues>
            1.9396099448204041e-01 -7.3073697090148926e-01</leafValues></_>
        <_>
          <internalNodes>
            0 -1 165 1.3861320621799678e-04</internalNodes>
          <leafValues>
            2.3167908191680908e-01 -5.6152582168579102e-01</leafValues></_>
        <_>
          <internalNodes>
            0 -1 171 7.4880299507640302e-05</internalNodes>
          <leafValues>
            2.5124236941337585e-01 -5.5139106512069702e-01</leafValues></_>
        <_>
          <internalNodes>
            0 -1 106 2.0792873692698777e-04</internalNodes>
          <leafValues>
            2.7985343337059021e-01 -5.2196854352951050e-01</leafValues></_></weakClassifiers></_>
    <!-- stage 4 -->
    <_>
      <maxWeakCount>39</maxWeakCount>
      <stageThreshold>6.3402272760868073e-02</stageThreshold>
      <weakClassifiers>
        <_>
          <internalNodes>
            0 -1 202 2.0403891539899632e-05</internalNodes>
          <leafValues>
            5.1442307233810425e-01 -5.6349205970764160e-01</leafValues></_>
        <_>
          <internalNodes>
            0 -1 227 -6.1131242546252906e-05</internalNodes>
          <leafValues>
            -6.3932490348815918e-01 2.6412475109100342e-01</leafValues></_>
        <_>
          <internalNodes>
            0 -1 200 -3.7070538382977247e-05</internalNodes>
          <leafValues>
            -6.5661060810089111e-01 2.4415408074855804e-01</leafValues></_>
        <_>
          <internalNodes>
            0 -1 147 1.0121462764800526e-05</internalNodes>
          <leafValues>
            1.7358309030532837e-01 -6.2432575225830078e-01</leafValues></_>
        <_>
          <internalNodes>
            0 -1 301 -1.5075000934302807e-02</internalNodes>
          <leafValues>
            4.9850434064865112e-01 -2.4439483880996704e-01</leafValues></_>
        <_>
          <internalNodes>
            0 -1 252 2.1219202608335763e-05</internalNodes>
          <leafValues>
            2.0540773868560791e-01 -5.6568372249603271e-01</leafValues></_>
        <_>
          <internalNodes>
            0 -1 16 5.0619553076103330e-04</internalNodes>
          <leafValues>
            -1.9997563958168030e-01 6.2837421894073486e-01</leafValues></_>
        <_>
          <internalNodes>
            0 -1 182 -8.0391859228257090e-05</internalNodes>
          <leafValues>
            -5.9141677618026733e-01 2.0036108791828156e-01</leafValues></_>
        <_>
          <internalNodes>
            0 -1 203 4.2164156184298918e-05</internalNodes>
          <leafValues>
            1.8980611860752106e-01 -5.5985230207443237e-01</leafValues></_>
        <_>
          <internalNodes>
            0 -1 339 -3.9511927752755582e-04</internalNodes>
          <leafValues>
            6.4215958118438721e-01 -1.8028704822063446e-01</leafValues></_>
        <_>
          <internalNodes>
            0 -1 129 4.0099777834257111e-05</internalNodes>
          <leafValues>
            1.9879965484142303e-01 -5.9588283300399780e-01</leafValues></_>
        <_>
          <internalNodes>
            0 -1 33 -2.0267110085114837e-04</internalNodes>
          <leafValues>
            7.4059742689132690e-01 -1.7172496020793915e-01</leafValues></_>
        <_>
          <internalNodes>
            0 -1 148 -1.0402422049082816e-04</internalNodes>
          <leafValues>
            -5.4762309789657593e-01 2.4685171246528625e-01</leafValues></_>
        <_>
          <internalNodes>
            0 -1 188 5.1021203398704529e-03</internalNodes>
          <leafValues>
            -1.5947631001472473e-01 7.9783535003662109e-01</leafValues></_>
        <_>
          <internalNodes>
            0 -1 107 -2.6032266760012135e-06</internalNodes>
          <leafValues>
            -4.5836058259010315e-01 3.1681072711944580e-01</leafValues></_>
        <_>
          <internalNodes>
            0 -1 11 -1.1483225971460342e-03</internalNodes>
          <leafValues>
            8.5195165872573853e-01 -1.5758104622364044e-01</leafValues></_>
        <_>
          <internalNodes>
            0 -1 265 7.0539550506509840e-05</internalNodes>
          <leafValues>
            2.3557655513286591e-01 -6.2194836139678955e-01</leafValues></_>
        <_>
          <internalNodes>
            0 -1 289 -2.6873437946051126e-06</internalNodes>
          <leafValues>
            -4.9524092674255371e-01 2.3675630986690521e-01</leafValues></_>
        <_>
          <internalNodes>
            0 -1 40 -1.4971967902965844e-04</internalNodes>
          <leafValues>
            6.8884783983230591e-01 -1.8215444684028625e-01</leafValues></_>
        <_>
          <internalNodes>
            0 -1 155 1.3841564941685647e-04</internalNodes>
          <leafValues>
            1.9293685257434845e-01 -7.1041458845138550e-01</leafValues></_>
        <_>
          <internalNodes>
            0 -1 145 -2.4397717425017618e-05</internalNodes>
          <leafValues>
            -5.3766930103302002e-01 2.1804143488407135e-01</leafValues></_>
        <_>
          <internalNodes>
            0 -1 59 9.2846539337188005e-04</internalNodes>
          <leafValues>
            -1.7342594265937805e-01 7.6177012920379639e-01</leafValues></_>
        <_>
          <internalNodes>
            0 -1 210 6.3713639974594116e-05</internalNodes>
          <leafValues>
            2.4069184064865112e-01 -5.5863726139068604e-01</leafValues></_>
        <_>
          <internalNodes>
            0 -1 10 1.6783108003437519e-04</internalNodes>
          <leafValues>
            -2.2590032219886780e-01 5.6052225828170776e-01</leafValues></_>
        <_>
          <internalNodes>
            0 -1 296 4.5954577217344195e-05</internalNodes>
          <leafValues>
            2.6855465769767761e-01 -5.1627349853515625e-01</leafValues></_>
        <_>
          <internalNodes>
            0 -1 323 4.0680289384908974e-04</internalNodes>
          <leafValues>
            -1.6795039176940918e-01 7.4558299779891968e-01</leafValues></_>
        <_>
          <internalNodes>
            0 -1 280 1.6260831034742296e-04</internalNodes>
          <leafValues>
            2.0769006013870239e-01 -6.3654285669326782e-01</leafValues></_>
        <_>
          <internalNodes>
            0 -1 161 -1.2418699916452169e-03</internalNodes>
          <leafValues>
            8.9990150928497314e-01 -1.3957875967025757e-01</leafValues></_>
        <_>
          <internalNodes>
            0 -1 220 1.8007605103775859e-04</internalNodes>
          <leafValues>
            1.5785621106624603e-01 -8.4701251983642578e-01</leafValues></_>
        <_>
          <internalNodes>
            0 -1 57 -1.5474960673600435e-03</internalNodes>
          <leafValues>
            6.0049092769622803e-01 -2.0557294785976410e-01</leafValues></_>
        <_>
          <internalNodes>
            0 -1 337 -7.0836348459124565e-04</internalNodes>
          <leafValues>
            7.5797873735427856e-01 -1.2935522198677063e-01</leafValues></_>
        <_>
          <internalNodes>
            0 -1 338 3.3778802026063204e-04</internalNodes>
          <leafValues>
            -2.0092782378196716e-01 5.6159210205078125e-01</leafValues></_>
        <_>
          <internalNodes>
            0 -1 120 1.0532095984672196e-05</internalNodes>
          <leafValues>
            2.4557118117809296e-01 -5.1034533977508545e-01</leafValues></_>
        <_>
          <internalNodes>
            0 -1 187 5.1864564418792725e-02</internalNodes>
          <leafValues>
            -1.8354596197605133e-01 6.4289355278015137e-01</leafValues></_>
        <_>
          <internalNodes>
            0 -1 139 3.7257661460898817e-05</internalNodes>
          <leafValues>
            2.4662590026855469e-01 -5.6027543544769287e-01</leafValues></_>
        <_>
          <internalNodes>
            0 -1 295 7.8736303839832544e-04</internalNodes>
          <leafValues>
            -2.3003049194812775e-01 5.4792082309722900e-01</leafValues></_>
        <_>
          <internalNodes>
            0 -1 288 -3.8446541293524206e-04</internalNodes>
          <leafValues>
            3.7856456637382507e-01 -3.2260164618492126e-01</leafValues></_>
        <_>
          <internalNodes>
            0 -1 213 2.2841146346763708e-05</internalNodes>
          <leafValues>
            1.4602208137512207e-01 -7.7147537469863892e-01</leafValues></_>
        <_>
          <internalNodes>
            0 -1 211 5.0519814976723865e-05</internalNodes>
          <leafValues>
            1.7247335612773895e-01 -5.9714293479919434e-01</leafValues></_></weakClassifiers></_>
    <!-- stage 5 -->
    <_>
      <maxWeakCount>36</maxWeakCount>
      <stageThreshold>9.8931426182389259e-03</stageThreshold>
      <weakClassifiers>
        <_>
          <internalNodes>
            0 -1 152 3.1748986657476053e-05</internalNodes>
          <leafValues>
            4.9747899174690247e-01 -2.9677417874336243e-01</leafValues></_>
        <_>
          <internalNodes>
            0 -1 7 -6.9774617440998554e-04</internalNodes>
          <leafValues>
            7.3920631408691406e-01 -1.2689866125583649e-01</leafValues></_>
        <_>
          <internalNodes>
            0 -1 146 -2.9215600079623982e-05</internalNodes>
          <leafValues>
            -5.8359605073928833e-01 2.2556194663047791e-01</leafValues></_>
        <_>
          <internalNodes>
            0 -1 15 7.2769436519593000e-04</internalNodes>
          <leafValues>
            -2.0681560039520264e-01 5.9803783893585205e-01</leafValues></_>
        <_>
          <internalNodes>
            0 -1 14 -9.6207763999700546e-04</internalNodes>
          <leafValues>
            6.1059331893920898e-01 -1.9952759146690369e-01</leafValues></_>
        <_>
          <internalNodes>
            0 -1 229 6.2875973526388407e-05</internalNodes>
          <leafValues>
            2.1928633749485016e-01 -5.1070332527160645e-01</leafValues></_>
        <_>
          <internalNodes>
            0 -1 325 -5.4770091082900763e-04</internalNodes>
          <leafValues>
            5.6531864404678345e-01 -2.1246327459812164e-01</leafValues></_>
        <_>
          <internalNodes>
            0 -1 122 -2.5795371038839221e-04</internalNodes>
          <leafValues>
            5.9062367677688599e-01 -1.5928478538990021e-01</leafValues></_>
        <_>
          <internalNodes>
            0 -1 199 -2.2234488278627396e-04</internalNodes>
          <leafValues>
            -6.5376979112625122e-01 1.8411742150783539e-01</leafValues></_>
        <_>
          <internalNodes>
            0 -1 343 -6.3949741888791323e-04</internalNodes>
          <leafValues>
            6.6050279140472412e-01 -1.7577271163463593e-01</leafValues></_>
        <_>
          <internalNodes>
            0 -1 333 4.7579221427440643e-04</internalNodes>
          <leafValues>
            -1.7044736444950104e-01 6.3792318105697632e-01</leafValues></_>
        <_>
          <internalNodes>
            0 -1 169 5.1162773161195219e-05</internalNodes>
          <leafValues>
            2.1603988111019135e-01 -5.9413200616836548e-01</leafValues></_>
        <_>
          <internalNodes>
            0 -1 105 -1.2242782395333052e-03</internalNodes>
          <leafValues>
            5.4137170314788818e-01 -2.2033266723155975e-01</leafValues></_>
        <_>
          <internalNodes>
            0 -1 43 6.3355844758916646e-05</internalNodes>
          <leafValues>
            -1.8057221174240112e-01 5.9210324287414551e-01</leafValues></_>
        <_>
          <internalNodes>
            0 -1 180 -7.8011813457123935e-05</internalNodes>
          <leafValues>
            -5.8530789613723755e-01 2.0353896915912628e-01</leafValues></_>
        <_>
          <internalNodes>
            0 -1 114 -1.8235152820125222e-03</internalNodes>
          <leafValues>
            6.3827091455459595e-01 -1.9763058423995972e-01</leafValues></_>
        <_>
          <internalNodes>
            0 -1 231 6.6595297539606690e-05</internalNodes>
          <leafValues>
            1.6727650165557861e-01 -7.0383232831954956e-01</leafValues></_>
        <_>
          <internalNodes>
            0 -1 123 1.5139461029320955e-03</internalNodes>
          <leafValues>
            -1.9071999192237854e-01 6.2285941839218140e-01</leafValues></_>
        <_>
          <internalNodes>
            0 -1 322 4.3259191443212330e-04</internalNodes>
          <leafValues>
            -1.4265568554401398e-01 6.7047268152236938e-01</leafValues></_>
        <_>
          <internalNodes>
            0 -1 241 -5.8374114334583282e-02</internalNodes>
          <leafValues>
            8.5176235437393188e-01 -9.9955804646015167e-02</leafValues></_>
        <_>
          <internalNodes>
            0 -1 138 3.1710824259789661e-05</internalNodes>
          <leafValues>
            2.0748913288116455e-01 -6.1999988555908203e-01</leafValues></_>
        <_>
          <internalNodes>
            0 -1 307 -9.3981483951210976e-04</internalNodes>
          <leafValues>
            7.7318936586380005e-01 -1.5072971582412720e-01</leafValues></_>
        <_>
          <internalNodes>
            0 -1 195 -6.9037996581755579e-05</internalNodes>
          <leafValues>
            -6.2188279628753662e-01 1.8403039872646332e-01</leafValues></_>
        <_>
          <internalNodes>
            0 -1 99 5.9950584545731544e-04</internalNodes>
          <leafValues>
            -1.9380921125411987e-01 6.5899699926376343e-01</leafValues></_>
        <_>
          <internalNodes>
            0 -1 309 -1.3809803640469909e-03</internalNodes>
          <leafValues>
            6.9196909666061401e-01 -1.2095221132040024e-01</leafValues></_>
        <_>
          <internalNodes>
            0 -1 160 1.9554348546080291e-04</internalNodes>
          <leafValues>
            1.8790297210216522e-01 -6.2788605690002441e-01</leafValues></_>
        <_>
          <internalNodes>
            0 -1 21 -1.0287401964887977e-03</internalNodes>
          <leafValues>
            6.1495536565780640e-01 -1.8974056839942932e-01</leafValues></_>
        <_>
          <internalNodes>
            0 -1 103 6.1112905314075761e-06</internalNodes>
          <leafValues>
            -3.4794959425926208e-01 3.0600491166114807e-01</leafValues></_>
        <_>
          <internalNodes>
            0 -1 216 6.4793915953487158e-04</internalNodes>
          <leafValues>
            -1.9076700508594513e-01 6.1640602350234985e-01</leafValues></_>
        <_>
          <internalNodes>
            0 -1 219 -3.1372470402857289e-05</internalNodes>
          <leafValues>
            -6.5736413002014160e-01 1.6804929077625275e-01</leafValues></_>
        <_>
          <internalNodes>
            0 -1 60 8.4420124767348170e-04</internalNodes>
          <leafValues>
            -2.1151790022850037e-01 5.4168492555618286e-01</leafValues></_>
        <_>
          <internalNodes>
            0 -1 142 1.9321367144584656e-03</internalNodes>
          <leafValues>
            -3.3732464909553528e-01 3.4678843617439270e-01</leafValues></_>
        <_>
          <internalNodes>
            0 -1 101 -1.0155189782381058e-02</internalNodes>
          <leafValues>
            5.2595156431198120e-01 -2.2766858339309692e-01</leafValues></_>
        <_>
          <internalNodes>
            0 -1 86 5.7179130613803864e-02</internalNodes>
          <leafValues>
            -1.6495922207832336e-01 6.5769475698471069e-01</leafValues></_>
        <_>
          <internalNodes>
            0 -1 327 3.0725356191396713e-04</internalNodes>
          <leafValues>
            -1.7175497114658356e-01 6.5233165025711060e-01</leafValues></_>
        <_>
          <internalNodes>
            0 -1 4 2.0167550537735224e-03</internalNodes>
          <leafValues>
            -1.3301552832126617e-01 7.2638022899627686e-01</leafValues></_></weakClassifiers></_>
    <!-- stage 6 -->
    <_>
      <maxWeakCount>44</maxWeakCount>
      <stageThreshold>-3.1620495021343231e-02</stageThreshold>
      <weakClassifiers>
        <_>
          <internalNodes>
            0 -1 243 -4.8688766582927201e-06</internalNodes>
          <leafValues>
            5.8385092020034790e-01 -1.1985018849372864e-01</leafValues></_>
        <_>
          <internalNodes>
            0 -1 249 1.3445077638607472e-04</internalNodes>
          <leafValues>
            2.1495707333087921e-01 -6.4201956987380981e-01</leafValues></_>
        <_>
          <internalNodes>
            0 -1 278 -2.0094649866223335e-02</internalNodes>
          <leafValues>
            3.0011770129203796e-01 -3.3188250660896301e-01</leafValues></_>
        <_>
          <internalNodes>
            0 -1 310 -4.4398130849003792e-03</internalNodes>
          <leafValues>
            2.2963909804821014e-01 -4.6725106239318848e-01</leafValues></_>
        <_>
          <internalNodes>
            0 -1 65 7.5102507253177464e-06</internalNodes>
          <leafValues>
            -3.9923775196075439e-01 2.6162835955619812e-01</leafValues></_>
        <_>
          <internalNodes>
            0 -1 93 8.9800007117446512e-05</internalNodes>
          <leafValues>
            1.9392187893390656e-01 -5.2597969770431519e-01</leafValues></_>
        <_>
          <internalNodes>
            0 -1 303 -1.5740180970169604e-04</internalNodes>
          <leafValues>
            -5.7664382457733154e-01 1.4193053543567657e-01</leafValues></_>
        <_>
          <internalNodes>
            0 -1 196 -5.1355445975787006e-06</internalNodes>
          <leafValues>
            2.7079048752784729e-01 -3.2081079483032227e-01</leafValues></_>
        <_>
          <internalNodes>
            0 -1 72 1.8695998936891556e-02</internalNodes>
          <leafValues>
            -1.6350473463535309e-01 6.0736578702926636e-01</leafValues></_>
        <_>
          <internalNodes>
            0 -1 63 -7.5110130012035370e-02</internalNodes>
          <leafValues>
            3.8377940654754639e-01 -2.3945638537406921e-01</leafValues></_>
        <_>
          <internalNodes>
            0 -1 84 -1.0302644968032837e-01</internalNodes>
          <leafValues>
            7.8791695833206177e-01 -1.1497984826564789e-01</leafValues></_>
        <_>
          <internalNodes>
            0 -1 176 7.1843329351395369e-05</internalNodes>
          <leafValues>
            1.3992254436016083e-01 -8.6018669605255127e-01</leafValues></_>
        <_>
          <internalNodes>
            0 -1 41 1.6380792949348688e-03</internalNodes>
          <leafValues>
            -2.0641401410102844e-01 4.7250062227249146e-01</leafValues></_>
        <_>
          <internalNodes>
            0 -1 140 1.3771909289062023e-04</internalNodes>
          <leafValues>
            1.6267958283424377e-01 -5.7133173942565918e-01</leafValues></_>
        <_>
          <internalNodes>
            0 -1 230 -4.8713442083681002e-05</internalNodes>
          <leafValues>
            -4.7178938984870911e-01 1.6087944805622101e-01</leafValues></_>
        <_>
          <internalNodes>
            0 -1 329 -1.5156366862356663e-03</internalNodes>
          <leafValues>
            5.0239777565002441e-01 -1.7516186833381653e-01</leafValues></_>
        <_>
          <internalNodes>
            0 -1 185 1.8776986747980118e-02</internalNodes>
          <leafValues>
            -1.1745001375675201e-01 6.1755734682083130e-01</leafValues></_>
        <_>
          <internalNodes>
            0 -1 75 -2.4810428840282839e-06</internalNodes>
          <leafValues>
            2.7658155560493469e-01 -3.2496494054794312e-01</leafValues></_>
        <_>
          <internalNodes>
            0 -1 82 6.4179752371273935e-05</internalNodes>
          <leafValues>
            1.4099092781543732e-01 -6.0915315151214600e-01</leafValues></_>
        <_>
          <internalNodes>
            0 -1 259 5.1320990314707160e-04</internalNodes>
          <leafValues>
            -2.1057096123695374e-01 4.1016551852226257e-01</leafValues></_>
        <_>
          <internalNodes>
            0 -1 49 -5.1761663053184748e-04</internalNodes>
          <leafValues>
            4.7478887438774109e-01 -1.7597205936908722e-01</leafValues></_>
        <_>
          <internalNodes>
            0 -1 198 1.1280206672381610e-04</internalNodes>
          <leafValues>
            1.2019635736942291e-01 -7.4284923076629639e-01</leafValues></_>
        <_>
          <internalNodes>
            0 -1 55 4.0358591079711914e-01</internalNodes>
          <leafValues>
            -1.7002534866333008e-01 5.6664800643920898e-01</leafValues></_>
        <_>
          <internalNodes>
            0 -1 191 -2.5249264581361786e-06</internalNodes>
          <leafValues>
            3.2452079653739929e-01 -2.6521787047386169e-01</leafValues></_>
        <_>
          <internalNodes>
            0 -1 26 6.1394344083964825e-04</internalNodes>
          <leafValues>
            -1.5122988820075989e-01 6.1742931604385376e-01</leafValues></_>
        <_>
          <internalNodes>
            0 -1 56 6.4960673451423645e-02</internalNodes>
          <leafValues>
            -9.5487423241138458e-02 7.9387235641479492e-01</leafValues></_>
        <_>
          <internalNodes>
            0 -1 304 5.1495284424163401e-05</internalNodes>
          <leafValues>
            2.1709200739860535e-01 -4.3950635194778442e-01</leafValues></_>
        <_>
          <internalNodes>
            0 -1 78 5.2839395357295871e-04</internalNodes>
          <leafValues>
            -1.4819452166557312e-01 6.1527794599533081e-01</leafValues></_>
        <_>
          <internalNodes>
            0 -1 70 1.0413146810606122e-04</internalNodes>
          <leafValues>
            2.4276848137378693e-01 -3.5164812207221985e-01</leafValues></_>
        <_>
          <internalNodes>
            0 -1 6 1.4760090410709381e-01</internalNodes>
          <leafValues>
            -1.8527862429618835e-01 5.9031784534454346e-01</leafValues></_>
        <_>
          <internalNodes>
            0 -1 150 -5.1542001529014669e-06</internalNodes>
          <leafValues>
            2.7066588401794434e-01 -3.5682055354118347e-01</leafValues></_>
        <_>
          <internalNodes>
            0 -1 341 4.1061365045607090e-03</internalNodes>
          <leafValues>
            1.2582096457481384e-01 -6.9859170913696289e-01</leafValues></_>
        <_>
          <internalNodes>
            0 -1 276 -1.7661263700574636e-04</internalNodes>
          <leafValues>
            5.0409996509552002e-01 -1.8511258065700531e-01</leafValues></_>
        <_>
          <internalNodes>
            0 -1 218 -1.7388372216373682e-03</internalNodes>
          <leafValues>
            -8.1878066062927246e-01 1.2401576340198517e-01</leafValues></_>
        <_>
          <internalNodes>
            0 -1 308 -3.8191789644770324e-04</internalNodes>
          <leafValues>
            4.8851534724235535e-01 -1.9203308224678040e-01</leafValues></_>
        <_>
          <internalNodes>
            0 -1 312 -1.8629321129992604e-04</internalNodes>
          <leafValues>
            -5.0711691379547119e-01 1.8730627000331879e-01</leafValues></_>
        <_>
          <internalNodes>
            0 -1 126 -3.4527750685811043e-03</internalNodes>
          <leafValues>
            4.9140805006027222e-01 -1.8245795369148254e-01</leafValues></_>
        <_>
          <internalNodes>
            0 -1 245 5.2970724937040359e-05</internalNodes>
          <leafValues>
            1.5631020069122314e-01 -5.8697897195816040e-01</leafValues></_>
        <_>
          <internalNodes>
            0 -1 23 -9.0301167801953852e-05</internalNodes>
          <leafValues>
            6.1343067884445190e-01 -1.6079404950141907e-01</leafValues></_>
        <_>
          <internalNodes>
            0 -1 184 -5.8914763940265402e-05</internalNodes>
          <leafValues>
            -4.0232738852500916e-01 2.3420569300651550e-01</leafValues></_>
        <_>
          <internalNodes>
            0 -1 232 -2.6045290753245354e-02</internalNodes>
          <leafValues>
            4.7801166772842407e-01 -1.9140376150608063e-01</leafValues></_>
        <_>
          <internalNodes>
            0 -1 91 -7.9084746539592743e-03</internalNodes>
          <leafValues>
            4.7102442383766174e-01 -1.8328462541103363e-01</leafValues></_>
        <_>
          <internalNodes>
            0 -1 3 7.3153923949575983e-06</internalNodes>
          <leafValues>
            -2.6871603727340698e-01 3.3453816175460815e-01</leafValues></_>
        <_>
          <internalNodes>
            0 -1 208 -1.5437690308317542e-04</internalNodes>
          <leafValues>
            -6.8398714065551758e-01 1.4456474781036377e-01</leafValues></_></weakClassifiers></_>
    <!-- stage 7 -->
    <_>
      <maxWeakCount>51</maxWeakCount>
      <stageThreshold>-8.9703351259231567e-02</stageThreshold>
      <weakClassifiers>
        <_>
          <internalNodes>
            0 -1 174 -7.2890004958026111e-05</internalNodes>
          <leafValues>
            -3.9583334326744080e-01 4.4036698341369629e-01</leafValues></_>
        <_>
          <internalNodes>
            0 -1 66 2.4254964955616742e-05</internalNodes>
          <leafValues>
            1.6441012918949127e-01 -5.4934173822402954e-01</leafValues></_>
        <_>
          <internalNodes>
            0 -1 335 8.2152371760457754e-04</internalNodes>
          <leafValues>
            -1.3884931802749634e-01 5.9689575433731079e-01</leafValues></_>
        <_>
          <internalNodes>
            0 -1 177 -2.5222748263331596e-06</internalNodes>
          <leafValues>
            2.1494792401790619e-01 -3.5964390635490417e-01</leafValues></_>
        <_>
          <internalNodes>
            0 -1 299 -2.1460256539285183e-04</internalNodes>
          <leafValues>
            7.3517382144927979e-01 -1.4429157972335815e-01</leafValues></_>
        <_>
          <internalNodes>
            0 -1 258 -3.6854053178103641e-05</internalNodes>
          <leafValues>
            -3.8113784790039062e-01 2.1073356270790100e-01</leafValues></_>
        <_>
          <internalNodes>
            0 -1 313 -1.4860338706057519e-04</internalNodes>
          <leafValues>
            6.6245722770690918e-01 -1.2778137624263763e-01</leafValues></_>
        <_>
          <internalNodes>
            0 -1 314 -1.1550268391147256e-04</internalNodes>
          <leafValues>
            4.9799051880836487e-01 -1.3392817974090576e-01</leafValues></_>
        <_>
          <internalNodes>
            0 -1 111 -1.7566606402397156e-02</internalNodes>
          <leafValues>
            4.2348375916481018e-01 -1.8062740564346313e-01</leafValues></_>
        <_>
          <internalNodes>
            0 -1 300 3.3930316567420959e-04</internalNodes>
          <leafValues>
            -1.0172414779663086e-01 6.9560772180557251e-01</leafValues></_>
        <_>
          <internalNodes>
            0 -1 255 1.1498287494760007e-04</internalNodes>
          <leafValues>
            1.4682102203369141e-01 -5.6895744800567627e-01</leafValues></_>
        <_>
          <internalNodes>
            0 -1 0 -1.2973784469068050e-03</internalNodes>
          <leafValues>
            3.2812327146530151e-01 -2.2672875225543976e-01</leafValues></_>
        <_>
          <internalNodes>
            0 -1 53 5.3840380860492587e-04</internalNodes>
          <leafValues>
            -1.3875296711921692e-01 4.8431697487831116e-01</leafValues></_>
        <_>
          <internalNodes>
            0 -1 83 7.1761300205253065e-05</internalNodes>
          <leafValues>
            1.5836791694164276e-01 -4.7184261679649353e-01</leafValues></_>
        <_>
          <internalNodes>
            0 -1 74 2.4190335352614056e-06</internalNodes>
          <leafValues>
            -3.0151695013046265e-01 2.8323295712471008e-01</leafValues></_>
        <_>
          <internalNodes>
            0 -1 100 -2.0399359054863453e-03</internalNodes>
          <leafValues>
            5.0722682476043701e-01 -1.6346135735511780e-01</leafValues></_>
        <_>
          <internalNodes>
            0 -1 194 2.2274345610640012e-05</internalNodes>
          <leafValues>
            1.7625690996646881e-01 -4.7718593478202820e-01</leafValues></_>
        <_>
          <internalNodes>
            0 -1 287 6.9606793113052845e-04</internalNodes>
          <leafValues>
            -1.8086862564086914e-01 4.0973177552223206e-01</leafValues></_>
        <_>
          <internalNodes>
            0 -1 54 -5.2906264318153262e-04</internalNodes>
          <leafValues>
            4.7553047537803650e-01 -1.5483152866363525e-01</leafValues></_>
        <_>
          <internalNodes>
            0 -1 284 1.1950453335884959e-04</internalNodes>
          <leafValues>
            1.7507465183734894e-01 -4.5061120390892029e-01</leafValues></_>
        <_>
          <internalNodes>
            0 -1 247 -2.8064842335879803e-03</internalNodes>
          <leafValues>
            2.2917312383651733e-01 -3.0288323760032654e-01</leafValues></_>
        <_>
          <internalNodes>
            0 -1 263 -3.6557283252477646e-02</internalNodes>
          <leafValues>
            8.3755892515182495e-01 -1.1009783297777176e-01</leafValues></_>
        <_>
          <internalNodes>
            0 -1 256 -5.6376917200395837e-05</internalNodes>
          <leafValues>
            -5.7138139009475708e-01 1.7378266155719757e-01</leafValues></_>
        <_>
          <internalNodes>
            0 -1 156 5.7561401263228618e-06</internalNodes>
          <leafValues>
            -3.4688776731491089e-01 1.9658452272415161e-01</leafValues></_>
        <_>
          <internalNodes>
            0 -1 173 9.0563909907359630e-05</internalNodes>
          <leafValues>
            -2.3229767382144928e-01 3.6045649647712708e-01</leafValues></_>
        <_>
          <internalNodes>
            0 -1 319 7.3799601523205638e-05</internalNodes>
          <leafValues>
            -1.3969823718070984e-01 5.2402365207672119e-01</leafValues></_>
        <_>
          <internalNodes>
            0 -1 246 -1.3630315661430359e-03</internalNodes>
          <leafValues>
            6.3155496120452881e-01 -1.0978668183088303e-01</leafValues></_>
        <_>
          <internalNodes>
            0 -1 253 -1.2508776853792369e-04</internalNodes>
          <leafValues>
            -5.5768197774887085e-01 1.4558382332324982e-01</leafValues></_>
        <_>
          <internalNodes>
            0 -1 136 -7.0585988396487664e-06</internalNodes>
          <leafValues>
            -4.3253597617149353e-01 1.8119685351848602e-01</leafValues></_>
        <_>
          <internalNodes>
            0 -1 19 -9.8312877526041120e-05</internalNodes>
          <leafValues>
            5.7378339767456055e-01 -1.4262339472770691e-01</leafValues></_>
        <_>
          <internalNodes>
            0 -1 135 4.8179137520492077e-03</internalNodes>
          <leafValues>
            1.1739310622215271e-01 -7.4350672960281372e-01</leafValues></_>
        <_>
          <internalNodes>
            0 -1 340 -1.0347769421059638e-04</internalNodes>
          <leafValues>
            5.7003074884414673e-01 -1.6080163419246674e-01</leafValues></_>
        <_>
          <internalNodes>
            0 -1 330 2.2801439627073705e-04</internalNodes>
          <leafValues>
            -8.9679867029190063e-02 6.5976840257644653e-01</leafValues></_>
        <_>
          <internalNodes>
            0 -1 242 -3.0038408003747463e-03</internalNodes>
          <leafValues>
            5.5454075336456299e-01 -1.2083870172500610e-01</leafValues></_>
        <_>
          <internalNodes>
            0 -1 110 -2.4749351723585278e-06</internalNodes>
          <leafValues>
            2.4927687644958496e-01 -3.1542551517486572e-01</leafValues></_>
        <_>
          <internalNodes>
            0 -1 273 2.2524269297719002e-05</internalNodes>
          <leafValues>
            1.2571518123149872e-01 -6.2144082784652710e-01</leafValues></_>
        <_>
          <internalNodes>
            0 -1 39 6.0045573627576232e-04</internalNodes>
          <leafValues>
            -1.1639472842216492e-01 7.7224069833755493e-01</leafValues></_>
        <_>
          <internalNodes>
            0 -1 336 9.1258541215211153e-04</internalNodes>
          <leafValues>
            -1.3339729607105255e-01 4.7710523009300232e-01</leafValues></_>
        <_>
          <internalNodes>
            0 -1 117 2.6880279183387756e-03</internalNodes>
          <leafValues>
            9.8200090229511261e-02 -8.5270833969116211e-01</leafValues></_>
        <_>
          <internalNodes>
            0 -1 261 -1.5492205275222659e-03</internalNodes>
          <leafValues>
            4.4508993625640869e-01 -1.8953289091587067e-01</leafValues></_>
        <_>
          <internalNodes>
            0 -1 112 3.0579489248339087e-05</internalNodes>
          <leafValues>
            1.7487797141075134e-01 -4.6903160214424133e-01</leafValues></_>
        <_>
          <internalNodes>
            0 -1 144 -2.2203908883966506e-04</internalNodes>
          <leafValues>
            3.0232244729995728e-01 -2.5374087691307068e-01</leafValues></_>
        <_>
          <internalNodes>
            0 -1 201 -4.8683807253837585e-03</internalNodes>
          <leafValues>
            3.2690367102622986e-01 -2.3112766444683075e-01</leafValues></_>
        <_>
          <internalNodes>
            0 -1 183 -1.1375268921256065e-02</internalNodes>
          <leafValues>
            4.6505215764045715e-01 -1.8907588720321655e-01</leafValues></_>
        <_>
          <internalNodes>
            0 -1 277 -3.9579844451509416e-04</internalNodes>
          <leafValues>
            8.0747872591018677e-01 -8.2558386027812958e-02</leafValues></_>
        <_>
          <internalNodes>
            0 -1 285 1.1406063276808709e-04</internalNodes>
          <leafValues>
            1.8362401425838470e-01 -4.5070219039916992e-01</leafValues></_>
        <_>
          <internalNodes>
            0 -1 89 2.4190335352614056e-06</internalNodes>
          <leafValues>
            -2.8297990560531616e-01 2.8393211960792542e-01</leafValues></_>
        <_>
          <internalNodes>
            0 -1 321 1.2865540338680148e-04</internalNodes>
          <leafValues>
            -1.3048042356967926e-01 5.8695614337921143e-01</leafValues></_>
        <_>
          <internalNodes>
            0 -1 272 2.4566588763264008e-06</internalNodes>
          <leafValues>
            2.2929082810878754e-01 -3.4442567825317383e-01</leafValues></_>
        <_>
          <internalNodes>
            0 -1 36 -1.3119186041876674e-03</internalNodes>
          <leafValues>
            6.0811805725097656e-01 -1.3205666840076447e-01</leafValues></_>
        <_>
          <internalNodes>
            0 -1 47 -1.2955707311630249e-01</internalNodes>
          <leafValues>
            7.2602432966232300e-01 -8.9119695127010345e-02</leafValues></_></weakClassifiers></_>
    <!-- stage 8 -->
    <_>
      <maxWeakCount>53</maxWeakCount>
      <stageThreshold>1.0377797484397888e-01</stageThreshold>
      <weakClassifiers>
        <_>
          <internalNodes>
            0 -1 204 -2.5335962163808290e-06</internalNodes>
          <leafValues>
            5.3688526153564453e-01 -4.5801527798175812e-02</leafValues></_>
        <_>
          <internalNodes>
            0 -1 121 1.5306146815419197e-04</internalNodes>
          <leafValues>
            1.7765286564826965e-01 -4.9452888965606689e-01</leafValues></_>
        <_>
          <internalNodes>
            0 -1 318 2.0780213177204132e-02</internalNodes>
          <leafValues>
            7.8737854957580566e-02 -8.0691123008728027e-01</leafValues></_>
        <_>
          <internalNodes>
            0 -1 224 3.1375166145153344e-05</internalNodes>
          <leafValues>
            1.3320919871330261e-01 -4.8058947920799255e-01</leafValues></_>
        <_>
          <internalNodes>
            0 -1 275 -3.6293324228608981e-05</internalNodes>
          <leafValues>
            -4.5052078366279602e-01 1.5228657424449921e-01</leafValues></_>
        <_>
          <internalNodes>
            0 -1 237 -2.0316997542977333e-03</internalNodes>
          <leafValues>
            2.4527385830879211e-01 -2.7590155601501465e-01</leafValues></_>
        <_>
          <internalNodes>
            0 -1 153 -9.5515897555742413e-06</internalNodes>
          <leafValues>
            -4.6960437297821045e-01 1.4975486695766449e-01</leafValues></_>
        <_>
          <internalNodes>
            0 -1 42 -8.9120096527040005e-04</internalNodes>
          <leafValues>
            4.3263033032417297e-01 -1.7420378327369690e-01</leafValues></_>
        <_>
          <internalNodes>
            0 -1 131 2.9420534701785073e-05</internalNodes>
          <leafValues>
            -2.8390881419181824e-01 2.7506905794143677e-01</leafValues></_>
        <_>
          <internalNodes>
            0 -1 52 -4.4121342943981290e-04</internalNodes>
          <leafValues>
            2.6048952341079712e-01 -2.4850313365459442e-01</leafValues></_>
        <_>
          <internalNodes>
            0 -1 80 -6.8032434210181236e-03</internalNodes>
          <leafValues>
            -5.8958131074905396e-01 1.2579099833965302e-01</leafValues></_>
        <_>
          <internalNodes>
            0 -1 35 5.2500185556709766e-03</internalNodes>
          <leafValues>
            -1.9384758174419403e-01 4.0284675359725952e-01</leafValues></_>
        <_>
          <internalNodes>
            0 -1 215 2.7799475938081741e-03</internalNodes>
          <leafValues>
            -2.3030902445316315e-01 3.1796696782112122e-01</leafValues></_>
        <_>
          <internalNodes>
            0 -1 69 3.5992205084767193e-05</internalNodes>
          <leafValues>
            -3.7962621450424194e-01 2.0722138881683350e-01</leafValues></_>
        <_>
          <internalNodes>
            0 -1 163 5.3743598982691765e-05</internalNodes>
          <leafValues>
            1.6940265893936157e-01 -4.1095948219299316e-01</leafValues></_>
        <_>
          <internalNodes>
            0 -1 12 -8.5003870481159538e-05</internalNodes>
          <leafValues>
            4.4778358936309814e-01 -1.4770711958408356e-01</leafValues></_>
        <_>
          <internalNodes>
            0 -1 238 -1.2314310297369957e-03</internalNodes>
          <leafValues>
            -6.4242827892303467e-01 1.0982658714056015e-01</leafValues></_>
        <_>
          <internalNodes>
            0 -1 344 -1.0652188211679459e-04</internalNodes>
          <leafValues>
            4.9744910001754761e-01 -1.5121257305145264e-01</leafValues></_>
        <_>
          <internalNodes>
            0 -1 344 2.9197884941822849e-05</internalNodes>
          <leafValues>
            -1.7376433312892914e-01 3.7397184967994690e-01</leafValues></_>
        <_>
          <internalNodes>
            0 -1 285 -8.1169373515876941e-06</internalNodes>
          <leafValues>
            -4.2752769589424133e-01 1.5552052855491638e-01</leafValues></_>
        <_>
          <internalNodes>
            0 -1 71 6.2107239500619471e-05</internalNodes>
          <leafValues>
            1.2830707430839539e-01 -5.0826972723007202e-01</leafValues></_>
        <_>
          <internalNodes>
            0 -1 32 1.8519504368305206e-01</internalNodes>
          <leafValues>
            -1.1702591180801392e-01 6.7624336481094360e-01</leafValues></_>
        <_>
          <internalNodes>
            0 -1 62 2.0311847329139709e-03</internalNodes>
          <leafValues>
            -1.1069688200950623e-01 5.5741161108016968e-01</leafValues></_>
        <_>
          <internalNodes>
            0 -1 239 -2.5222748263331596e-06</internalNodes>
          <leafValues>
            2.3173870146274567e-01 -2.9002538323402405e-01</leafValues></_>
        <_>
          <internalNodes>
            0 -1 51 -1.7860447987914085e-02</internalNodes>
          <leafValues>
            6.3115143775939941e-01 -1.1926697194576263e-01</leafValues></_>
        <_>
          <internalNodes>
            0 -1 109 1.7051208764314651e-02</internalNodes>
          <leafValues>
            -1.0859948396682739e-01 5.7933008670806885e-01</leafValues></_>
        <_>
          <internalNodes>
            0 -1 50 2.0914040505886078e-01</internalNodes>
          <leafValues>
            -1.6603398323059082e-01 4.0953704714775085e-01</leafValues></_>
        <_>
          <internalNodes>
            0 -1 235 4.0263645350933075e-03</internalNodes>
          <leafValues>
            -2.4835099279880524e-01 2.8349512815475464e-01</leafValues></_>
        <_>
          <internalNodes>
            0 -1 175 -9.7478274255990982e-04</internalNodes>
          <leafValues>
            5.2886009216308594e-01 -1.4956164360046387e-01</leafValues></_>
        <_>
          <internalNodes>
            0 -1 132 9.5762964338064194e-04</internalNodes>
          <leafValues>
            1.4876116812229156e-01 -5.1739645004272461e-01</leafValues></_>
        <_>
          <internalNodes>
            0 -1 332 -4.2478297837078571e-04</internalNodes>
          <leafValues>
            5.5099481344223022e-01 -1.4452758431434631e-01</leafValues></_>
        <_>
          <internalNodes>
            0 -1 268 -7.8573029895778745e-05</internalNodes>
          <leafValues>
            -5.7120382785797119e-01 1.3505499064922333e-01</leafValues></_>
        <_>
          <internalNodes>
            0 -1 214 3.9573749527335167e-03</internalNodes>
          <leafValues>
            -1.8795464932918549e-01 4.1312709450721741e-01</leafValues></_>
        <_>
          <internalNodes>
            0 -1 320 -8.3549972623586655e-04</internalNodes>
          <leafValues>
            4.3600973486900330e-01 -1.5350370109081268e-01</leafValues></_>
        <_>
          <internalNodes>
            0 -1 297 1.1301158519927412e-04</internalNodes>
          <leafValues>
            1.2503907084465027e-01 -6.1850267648696899e-01</leafValues></_>
        <_>
          <internalNodes>
            0 -1 141 3.8166908780112863e-05</internalNodes>
          <leafValues>
            -3.4933146834373474e-01 1.9770224392414093e-01</leafValues></_>
        <_>
          <internalNodes>
            0 -1 37 4.3785281013697386e-04</internalNodes>
          <leafValues>
            1.5283168852329254e-01 -4.6038877964019775e-01</leafValues></_>
        <_>
          <internalNodes>
            0 -1 17 -1.4583070878870785e-04</internalNodes>
          <leafValues>
            5.2472656965255737e-01 -1.4228005707263947e-01</leafValues></_>
        <_>
          <internalNodes>
            0 -1 151 -4.2593944817781448e-04</internalNodes>
          <leafValues>
            7.0932161808013916e-01 -9.3125052750110626e-02</leafValues></_>
        <_>
          <internalNodes>
            0 -1 64 -1.0863257339224219e-03</internalNodes>
          <leafValues>
            -7.3950946331024170e-01 1.1375606060028076e-01</leafValues></_>
        <_>
          <internalNodes>
            0 -1 283 3.9499270496889949e-04</internalNodes>
          <leafValues>
            -1.6477699577808380e-01 4.7606208920478821e-01</leafValues></_>
        <_>
          <internalNodes>
            0 -1 9 -1.4268844097387046e-04</internalNodes>
          <leafValues>
            6.6083431243896484e-01 -9.6315912902355194e-02</leafValues></_>
        <_>
          <internalNodes>
            0 -1 225 -9.0023590018972754e-04</internalNodes>
          <leafValues>
            -5.5007082223892212e-01 1.3551910221576691e-01</leafValues></_>
        <_>
          <internalNodes>
            0 -1 205 2.1286550327204168e-04</internalNodes>
          <leafValues>
            1.0164085775613785e-01 -6.0076326131820679e-01</leafValues></_>
        <_>
          <internalNodes>
            0 -1 270 1.7813102749641985e-04</internalNodes>
          <leafValues>
            -1.3977420330047607e-01 5.7731598615646362e-01</leafValues></_>
        <_>
          <internalNodes>
            0 -1 58 -8.6441170424222946e-05</internalNodes>
          <leafValues>
            3.6081978678703308e-01 -1.7614366114139557e-01</leafValues></_>
        <_>
          <internalNodes>
            0 -1 291 -6.8778565037064254e-05</internalNodes>
          <leafValues>
            -5.4854744672775269e-01 1.3222669064998627e-01</leafValues></_>
        <_>
          <internalNodes>
            0 -1 207 2.0811231806874275e-03</internalNodes>
          <leafValues>
            -1.2274616211652756e-01 6.4584833383560181e-01</leafValues></_>
        <_>
          <internalNodes>
            0 -1 127 5.9940554201602936e-03</internalNodes>
          <leafValues>
            -2.4185825884342194e-01 3.0844250321388245e-01</leafValues></_>
        <_>
          <internalNodes>
            0 -1 90 -3.8846203824505210e-04</internalNodes>
          <leafValues>
            4.1527077555656433e-01 -1.8830339610576630e-01</leafValues></_>
        <_>
          <internalNodes>
            0 -1 269 2.6858432684093714e-03</internalNodes>
          <leafValues>
            1.2718915939331055e-01 -5.9123706817626953e-01</leafValues></_>
        <_>
          <internalNodes>
            0 -1 317 -6.0702720656991005e-03</internalNodes>
          <leafValues>
            5.0467908382415771e-01 -1.6084562242031097e-01</leafValues></_>
        <_>
          <internalNodes>
            0 -1 292 3.9020059630274773e-03</internalNodes>
          <leafValues>
            -1.7221288383007050e-01 4.1663855314254761e-01</leafValues></_></weakClassifiers></_></stages>
  <features>
    <_>
      <rects>
        <_>
          0 0 1 20 -1.</_>
        <_>
          0 10 1 10 2.</_></rects>
      <tilted>0</tilted></_>
    <_>
      <rects>
        <_>
          0 0 4 34 -1.</_>
        <_>
          0 0 2 17 2.</_>
        <_>
          2 17 2 17 2.</_></rects>
      <tilted>0</tilted></_>
    <_>
      <rects>
        <_>
          0 2 22 40 -1.</_>
        <_>
          11 2 11 40 2.</_></rects>
      <tilted>0</tilted></_>
    <_>
      <rects>
        <_>
          0 3 3 4 -1.</_>
        <_>
          1 3 1 4 3.</_></rects>
      <tilted>0</tilted></_>
    <_>
      <rects>
        <_>
          0 5 2 28 -1.</_>
        <_>
          0 5 1 14 2.</_>
        <_>
          1 19 1 14 2.</_></rects>
      <tilted>0</tilted></_>
    <_>
      <rects>
        <_>
          0 10 15 37 -1.</_>
        <_>
          5 10 5 37 3.</_></rects>
      <tilted>0</tilted></_>
    <_>
      <rects>
        <_>
          0 11 30 21 -1.</_>
        <_>
          10 18 10 7 9.</_></rects>
      <tilted>0</tilted></_>
    <_>
      <rects>
        <_>
          0 13 3 6 -1.</_>
        <_>
          1 13 1 6 3.</_></rects>
      <tilted>0</tilted></_>
    <_>
      <rects>
        <_>
          0 17 49 32 -1.</_>
        <_>
          0 33 49 16 2.</_></rects>
      <tilted>0</tilted></_>
    <_>
      <rects>
        <_>
          0 18 2 2 -1.</_>
        <_>
          0 18 1 1 2.</_>
        <_>
          1 19 1 1 2.</_></rects>
      <tilted>0</tilted></_>
    <_>
      <rects>
        <_>
          0 18 3 2 -1.</_>
        <_>
          1 18 1 2 3.</_></rects>
      <tilted>0</tilted></_>
    <_>
      <rects>
        <_>
          0 18 3 6 -1.</_>
        <_>
          1 18 1 6 3.</_></rects>
      <tilted>0</tilted></_>
    <_>
      <rects>
        <_>
          0 19 1 3 -1.</_>
        <_>
          0 20 1 1 3.</_></rects>
      <tilted>0</tilted></_>
    <_>
      <rects>
        <_>
          0 19 3 4 -1.</_>
        <_>
          1 19 1 4 3.</_></rects>
      <tilted>0</tilted></_>
    <_>
      <rects>
        <_>
          0 19 3 26 -1.</_>
        <_>
          1 19 1 26 3.</_></rects>
      <tilted>0</tilted></_>
    <_>
      <rects>
        <_>
          0 20 3 11 -1.</_>
        <_>
          1 20 1 11 3.</_></rects>
      <tilted>0</tilted></_>
    <_>
      <rects>
        <_>
          0 21 3 5 -1.</_>
        <_>
          1 21 1 5 3.</_></rects>
      <tilted>0</tilted></_>
    <_>
      <rects>
        <_>
          0 30 3 1 -1.</_>
        <_>
          1 30 1 1 3.</_></rects>
      <tilted>0</tilted></_>
    <_>
      <rects>
        <_>
          0 30 6 8 -1.</_>
        <_>
          3 30 3 8 2.</_></rects>
      <tilted>0</tilted></_>
    <_>
      <rects>
        <_>
          0 31 2 2 -1.</_>
        <_>
          0 31 1 1 2.</_>
        <_>
          1 32 1 1 2.</_></rects>
      <tilted>0</tilted></_>
    <_>
      <rects>
        <_>
          0 33 44 16 -1.</_>
        <_>
          0 33 22 8 2.</_>
        <_>
          22 41 22 8 2.</_></rects>
      <tilted>0</tilted></_>
    <_>
      <rects>
        <_>
          0 44 25 3 -1.</_>
        <_>
          0 45 25 1 3.</_></rects>
      <tilted>0</tilted></_>
    <_>
      <rects>
        <_>
          1 0 16 14 -1.</_>
        <_>
          1 0 8 7 2.</_>
        <_>
          9 7 8 7 2.</_></rects>
      <tilted>0</tilted></_>
    <_>
      <rects>
        <_>
          1 12 2 2 -1.</_>
        <_>
          1 12 1 1 2.</_>
        <_>
          2 13 1 1 2.</_></rects>
      <tilted>0</tilted></_>
    <_>
      <rects>
        <_>
          1 13 36 33 -1.</_>
        <_>
          13 24 12 11 9.</_></rects>
      <tilted>0</tilted></_>
    <_>
      <rects>
        <_>
          1 14 2 12 -1.</_>
        <_>
          2 14 1 12 2.</_></rects>
      <tilted>0</tilted></_>
    <_>
      <rects>
        <_>
          1 19 3 1 -1.</_>
        <_>
          2 20 1 1 3.</_></rects>
      <tilted>1</tilted></_>
    <_>
      <rects>
        <_>
          1 23 45 15 -1.</_>
        <_>
          16 28 15 5 9.</_></rects>
      <tilted>0</tilted></_>
    <_>
      <rects>
        <_>
          1 32 4 4 -1.</_>
        <_>
          1 32 2 2 2.</_>
        <_>
          3 34 2 2 2.</_></rects>
      <tilted>0</tilted></_>
    <_>
      <rects>
        <_>
          2 1 22 8 -1.</_>
        <_>
          2 1 11 4 2.</_>
        <_>
          13 5 11 4 2.</_></rects>
      <tilted>0</tilted></_>
    <_>
      <rects>
        <_>
          2 3 16 2 -1.</_>
        <_>
          6 7 8 2 2.</_></rects>
      <tilted>1</tilted></_>
    <_>
      <rects>
        <_>
          2 3 48 16 -1.</_>
        <_>
          14 3 24 16 2.</_></rects>
      <tilted>0</tilted></_>
    <_>
      <rects>
        <_>
          2 7 21 30 -1.</_>
        <_>
          9 17 7 10 9.</_></rects>
      <tilted>0</tilted></_>
    <_>
      <rects>
        <_>
          2 11 3 1 -1.</_>
        <_>
          3 11 1 1 3.</_></rects>
      <tilted>0</tilted></_>
    <_>
      <rects>
        <_>
          2 26 8 14 -1.</_>
        <_>
          6 26 4 14 2.</_></rects>
      <tilted>0</tilted></_>
    <_>
      <rects>
        <_>
          2 26 20 12 -1.</_>
        <_>
          2 26 10 6 2.</_>
        <_>
          12 32 10 6 2.</_></rects>
      <tilted>0</tilted></_>
    <_>
      <rects>
        <_>
          2 38 14 3 -1.</_>
        <_>
          2 39 14 1 3.</_></rects>
      <tilted>0</tilted></_>
    <_>
      <rects>
        <_>
          3 1 4 3 -1.</_>
        <_>
          5 1 2 3 2.</_></rects>
      <tilted>0</tilted></_>
    <_>
      <rects>
        <_>
          3 2 2 2 -1.</_>
        <_>
          3 3 2 1 2.</_></rects>
      <tilted>0</tilted></_>
    <_>
      <rects>
        <_>
          3 7 3 2 -1.</_>
        <_>
          4 7 1 2 3.</_></rects>
      <tilted>0</tilted></_>
    <_>
      <rects>
        <_>
          3 11 3 1 -1.</_>
        <_>
          4 11 1 1 3.</_></rects>
      <tilted>0</tilted></_>
    <_>
      <rects>
        <_>
          3 30 17 3 -1.</_>
        <_>
          2 31 17 1 3.</_></rects>
      <tilted>1</tilted></_>
    <_>
      <rects>
        <_>
          3 31 32 1 -1.</_>
        <_>
          19 31 16 1 2.</_></rects>
      <tilted>0</tilted></_>
    <_>
      <rects>
        <_>
          3 37 2 2 -1.</_>
        <_>
          3 37 1 1 2.</_>
        <_>
          4 38 1 1 2.</_></rects>
      <tilted>0</tilted></_>
    <_>
      <rects>
        <_>
          4 0 37 24 -1.</_>
        <_>
          4 8 37 8 3.</_></rects>
      <tilted>0</tilted></_>
    <_>
      <rects>
        <_>
          4 0 43 44 -1.</_>
        <_>
          4 11 43 22 2.</_></rects>
      <tilted>0</tilted></_>
    <_>
      <rects>
        <_>
          4 8 6 4 -1.</_>
        <_>
          6 10 2 4 3.</_></rects>
      <tilted>1</tilted></_>
    <_>
      <rects>
        <_>
          4 9 21 30 -1.</_>
        <_>
          11 19 7 10 9.</_></rects>
      <tilted>0</tilted></_>
    <_>
      <rects>
        <_>
          4 18 30 24 -1.</_>
        <_>
          14 26 10 8 9.</_></rects>
      <tilted>0</tilted></_>
    <_>
      <rects>
        <_>
          4 45 12 2 -1.</_>
        <_>
          4 45 6 1 2.</_>
        <_>
          10 46 6 1 2.</_></rects>
      <tilted>0</tilted></_>
    <_>
      <rects>
        <_>
          5 0 39 24 -1.</_>
        <_>
          18 8 13 8 9.</_></rects>
      <tilted>0</tilted></_>
    <_>
      <rects>
        <_>
          5 0 45 6 -1.</_>
        <_>
          5 3 45 3 2.</_></rects>
      <tilted>0</tilted></_>
    <_>
      <rects>
        <_>
          5 1 3 20 -1.</_>
        <_>
          5 6 3 10 2.</_></rects>
      <tilted>0</tilted></_>
    <_>
      <rects>
        <_>
          5 3 3 7 -1.</_>
        <_>
          6 3 1 7 3.</_></rects>
      <tilted>0</tilted></_>
    <_>
      <rects>
        <_>
          5 4 3 12 -1.</_>
        <_>
          6 4 1 12 3.</_></rects>
      <tilted>0</tilted></_>
    <_>
      <rects>
        <_>
          5 10 36 39 -1.</_>
        <_>
          17 23 12 13 9.</_></rects>
      <tilted>0</tilted></_>
    <_>
      <rects>
        <_>
          5 21 36 10 -1.</_>
        <_>
          23 21 18 10 2.</_></rects>
      <tilted>0</tilted></_>
    <_>
      <rects>
        <_>
          5 33 9 3 -1.</_>
        <_>
          4 34 9 1 3.</_></rects>
      <tilted>1</tilted></_>
    <_>
      <rects>
        <_>
          5 34 2 6 -1.</_>
        <_>
          5 34 1 3 2.</_>
        <_>
          6 37 1 3 2.</_></rects>
      <tilted>0</tilted></_>
    <_>
      <rects>
        <_>
          6 6 3 3 -1.</_>
        <_>
          7 7 1 1 9.</_></rects>
      <tilted>0</tilted></_>
    <_>
      <rects>
        <_>
          6 8 3 5 -1.</_>
        <_>
          7 9 1 5 3.</_></rects>
      <tilted>1</tilted></_>
    <_>
      <rects>
        <_>
          6 35 1 6 -1.</_>
        <_>
          4 37 1 2 3.</_></rects>
      <tilted>1</tilted></_>
    <_>
      <rects>
        <_>
          7 8 4 6 -1.</_>
        <_>
          8 9 2 6 2.</_></rects>
      <tilted>1</tilted></_>
    <_>
      <rects>
        <_>
          7 14 11 36 -1.</_>
        <_>
          7 32 11 18 2.</_></rects>
      <tilted>0</tilted></_>
    <_>
      <rects>
        <_>
          7 19 11 4 -1.</_>
        <_>
          7 20 11 2 2.</_></rects>
      <tilted>0</tilted></_>
    <_>
      <rects>
        <_>
          7 20 4 2 -1.</_>
        <_>
          9 20 2 2 2.</_></rects>
      <tilted>0</tilted></_>
    <_>
      <rects>
        <_>
          7 23 1 2 -1.</_>
        <_>
          7 24 1 1 2.</_></rects>
      <tilted>0</tilted></_>
    <_>
      <rects>
        <_>
          7 37 14 11 -1.</_>
        <_>
          14 37 7 11 2.</_></rects>
      <tilted>0</tilted></_>
    <_>
      <rects>
        <_>
          8 14 6 1 -1.</_>
        <_>
          11 14 3 1 2.</_></rects>
      <tilted>0</tilted></_>
    <_>
      <rects>
        <_>
          8 17 8 1 -1.</_>
        <_>
          12 17 4 1 2.</_></rects>
      <tilted>0</tilted></_>
    <_>
      <rects>
        <_>
          8 18 1 8 -1.</_>
        <_>
          8 20 1 4 2.</_></rects>
      <tilted>0</tilted></_>
    <_>
      <rects>
        <_>
          8 21 2 1 -1.</_>
        <_>
          9 21 1 1 2.</_></rects>
      <tilted>0</tilted></_>
    <_>
      <rects>
        <_>
          8 21 36 4 -1.</_>
        <_>
          26 21 18 4 2.</_></rects>
      <tilted>0</tilted></_>
    <_>
      <rects>
        <_>
          8 24 5 2 -1.</_>
        <_>
          8 25 5 1 2.</_></rects>
      <tilted>0</tilted></_>
    <_>
      <rects>
        <_>
          8 28 2 1 -1.</_>
        <_>
          9 28 1 1 2.</_></rects>
      <tilted>0</tilted></_>
    <_>
      <rects>
        <_>
          8 29 2 2 -1.</_>
        <_>
          8 30 2 1 2.</_></rects>
      <tilted>0</tilted></_>
    <_>
      <rects>
        <_>
          8 33 3 6 -1.</_>
        <_>
          6 35 3 2 3.</_></rects>
      <tilted>1</tilted></_>
    <_>
      <rects>
        <_>
          9 1 10 9 -1.</_>
        <_>
          9 1 5 9 2.</_></rects>
      <tilted>1</tilted></_>
    <_>
      <rects>
        <_>
          9 3 3 5 -1.</_>
        <_>
          10 3 1 5 3.</_></rects>
      <tilted>0</tilted></_>
    <_>
      <rects>
        <_>
          9 4 6 8 -1.</_>
        <_>
          9 4 3 4 2.</_>
        <_>
          12 8 3 4 2.</_></rects>
      <tilted>0</tilted></_>
    <_>
      <rects>
        <_>
          9 14 29 6 -1.</_>
        <_>
          7 16 29 2 3.</_></rects>
      <tilted>1</tilted></_>
    <_>
      <rects>
        <_>
          9 22 2 1 -1.</_>
        <_>
          9 22 1 1 2.</_></rects>
      <tilted>1</tilted></_>
    <_>
      <rects>
        <_>
          9 27 1 4 -1.</_>
        <_>
          9 28 1 2 2.</_></rects>
      <tilted>0</tilted></_>
    <_>
      <rects>
        <_>
          9 27 3 1 -1.</_>
        <_>
          10 28 1 1 3.</_></rects>
      <tilted>1</tilted></_>
    <_>
      <rects>
        <_>
          10 1 22 39 -1.</_>
        <_>
          10 14 22 13 3.</_></rects>
      <tilted>0</tilted></_>
    <_>
      <rects>
        <_>
          10 6 16 42 -1.</_>
        <_>
          10 20 16 14 3.</_></rects>
      <tilted>0</tilted></_>
    <_>
      <rects>
        <_>
          10 9 38 26 -1.</_>
        <_>
          10 9 19 13 2.</_>
        <_>
          29 22 19 13 2.</_></rects>
      <tilted>0</tilted></_>
    <_>
      <rects>
        <_>
          10 26 18 6 -1.</_>
        <_>
          10 28 18 2 3.</_></rects>
      <tilted>0</tilted></_>
    <_>
      <rects>
        <_>
          10 28 37 20 -1.</_>
        <_>
          10 33 37 10 2.</_></rects>
      <tilted>0</tilted></_>
    <_>
      <rects>
        <_>
          10 29 2 1 -1.</_>
        <_>
          11 29 1 1 2.</_></rects>
      <tilted>0</tilted></_>
    <_>
      <rects>
        <_>
          10 45 7 3 -1.</_>
        <_>
          10 46 7 1 3.</_></rects>
      <tilted>0</tilted></_>
    <_>
      <rects>
        <_>
          11 0 16 4 -1.</_>
        <_>
          15 4 8 4 2.</_></rects>
      <tilted>1</tilted></_>
    <_>
      <rects>
        <_>
          11 1 18 5 -1.</_>
        <_>
          17 7 6 5 3.</_></rects>
      <tilted>1</tilted></_>
    <_>
      <rects>
        <_>
          11 22 5 3 -1.</_>
        <_>
          11 23 5 1 3.</_></rects>
      <tilted>0</tilted></_>
    <_>
      <rects>
        <_>
          11 25 6 2 -1.</_>
        <_>
          13 25 2 2 3.</_></rects>
      <tilted>0</tilted></_>
    <_>
      <rects>
        <_>
          11 28 2 4 -1.</_>
        <_>
          11 30 2 2 2.</_></rects>
      <tilted>0</tilted></_>
    <_>
      <rects>
        <_>
          11 29 23 3 -1.</_>
        <_>
          11 30 23 1 3.</_></rects>
      <tilted>0</tilted></_>
    <_>
      <rects>
        <_>
          11 32 1 2 -1.</_>
        <_>
          11 33 1 1 2.</_></rects>
      <tilted>0</tilted></_>
    <_>
      <rects>
        <_>
          11 38 7 2 -1.</_>
        <_>
          11 39 7 1 2.</_></rects>
      <tilted>0</tilted></_>
    <_>
      <rects>
        <_>
          12 1 3 8 -1.</_>
        <_>
          13 1 1 8 3.</_></rects>
      <tilted>0</tilted></_>
    <_>
      <rects>
        <_>
          12 20 15 1 -1.</_>
        <_>
          17 25 5 1 3.</_></rects>
      <tilted>1</tilted></_>
    <_>
      <rects>
        <_>
          12 23 28 4 -1.</_>
        <_>
          26 23 14 4 2.</_></rects>
      <tilted>0</tilted></_>
    <_>
      <rects>
        <_>
          12 26 1 4 -1.</_>
        <_>
          12 28 1 2 2.</_></rects>
      <tilted>0</tilted></_>
    <_>
      <rects>
        <_>
          12 27 2 4 -1.</_>
        <_>
          13 27 1 4 2.</_></rects>
      <tilted>0</tilted></_>
    <_>
      <rects>
        <_>
          13 0 29 28 -1.</_>
        <_>
          13 7 29 14 2.</_></rects>
      <tilted>0</tilted></_>
    <_>
      <rects>
        <_>
          13 1 32 3 -1.</_>
        <_>
          13 2 32 1 3.</_></rects>
      <tilted>0</tilted></_>
    <_>
      <rects>
        <_>
          13 18 3 6 -1.</_>
        <_>
          14 20 1 2 9.</_></rects>
      <tilted>0</tilted></_>
    <_>
      <rects>
        <_>
          13 20 2 1 -1.</_>
        <_>
          14 20 1 1 2.</_></rects>
      <tilted>0</tilted></_>
    <_>
      <rects>
        <_>
          13 23 20 3 -1.</_>
        <_>
          13 23 10 3 2.</_></rects>
      <tilted>1</tilted></_>
    <_>
      <rects>
        <_>
          13 25 12 12 -1.</_>
        <_>
          10 28 12 6 2.</_></rects>
      <tilted>1</tilted></_>
    <_>
      <rects>
        <_>
          13 28 1 2 -1.</_>
        <_>
          13 29 1 1 2.</_></rects>
      <tilted>0</tilted></_>
    <_>
      <rects>
        <_>
          13 28 32 6 -1.</_>
        <_>
          29 28 16 6 2.</_></rects>
      <tilted>0</tilted></_>
    <_>
      <rects>
        <_>
          13 33 4 1 -1.</_>
        <_>
          14 33 2 1 2.</_></rects>
      <tilted>0</tilted></_>
    <_>
      <rects>
        <_>
          13 38 23 12 -1.</_>
        <_>
          13 41 23 6 2.</_></rects>
      <tilted>0</tilted></_>
    <_>
      <rects>
        <_>
          13 47 37 3 -1.</_>
        <_>
          13 48 37 1 3.</_></rects>
      <tilted>0</tilted></_>
    <_>
      <rects>
        <_>
          14 2 13 24 -1.</_>
        <_>
          14 10 13 8 3.</_></rects>
      <tilted>0</tilted></_>
    <_>
      <rects>
        <_>
          14 2 15 12 -1.</_>
        <_>
          14 6 15 4 3.</_></rects>
      <tilted>0</tilted></_>
    <_>
      <rects>
        <_>
          14 12 6 7 -1.</_>
        <_>
          16 12 2 7 3.</_></rects>
      <tilted>0</tilted></_>
    <_>
      <rects>
        <_>
          14 16 36 6 -1.</_>
        <_>
          26 16 12 6 3.</_></rects>
      <tilted>0</tilted></_>
    <_>
      <rects>
        <_>
          14 23 2 4 -1.</_>
        <_>
          14 24 2 2 2.</_></rects>
      <tilted>0</tilted></_>
    <_>
      <rects>
        <_>
          14 27 4 2 -1.</_>
        <_>
          14 28 4 1 2.</_></rects>
      <tilted>0</tilted></_>
    <_>
      <rects>
        <_>
          14 34 3 1 -1.</_>
        <_>
          15 35 1 1 3.</_></rects>
      <tilted>1</tilted></_>
    <_>
      <rects>
        <_>
          14 46 2 3 -1.</_>
        <_>
          14 47 2 1 3.</_></rects>
      <tilted>0</tilted></_>
    <_>
      <rects>
        <_>
          14 47 36 3 -1.</_>
        <_>
          14 48 36 1 3.</_></rects>
      <tilted>0</tilted></_>
    <_>
      <rects>
        <_>
          15 0 19 8 -1.</_>
        <_>
          15 2 19 4 2.</_></rects>
      <tilted>0</tilted></_>
    <_>
      <rects>
        <_>
          15 1 4 8 -1.</_>
        <_>
          16 2 2 8 2.</_></rects>
      <tilted>1</tilted></_>
    <_>
      <rects>
        <_>
          15 9 27 1 -1.</_>
        <_>
          24 18 9 1 3.</_></rects>
      <tilted>1</tilted></_>
    <_>
      <rects>
        <_>
          15 11 24 12 -1.</_>
        <_>
          23 11 8 12 3.</_></rects>
      <tilted>0</tilted></_>
    <_>
      <rects>
        <_>
          15 19 1 2 -1.</_>
        <_>
          15 19 1 1 2.</_></rects>
      <tilted>1</tilted></_>
    <_>
      <rects>
        <_>
          15 21 1 4 -1.</_>
        <_>
          15 22 1 2 2.</_></rects>
      <tilted>0</tilted></_>
    <_>
      <rects>
        <_>
          15 21 2 1 -1.</_>
        <_>
          15 21 1 1 2.</_></rects>
      <tilted>1</tilted></_>
    <_>
      <rects>
        <_>
          15 25 4 3 -1.</_>
        <_>
          17 25 2 3 2.</_></rects>
      <tilted>0</tilted></_>
    <_>
      <rects>
        <_>
          15 32 4 5 -1.</_>
        <_>
          16 33 2 5 2.</_></rects>
      <tilted>1</tilted></_>
    <_>
      <rects>
        <_>
          15 36 3 1 -1.</_>
        <_>
          16 37 1 1 3.</_></rects>
      <tilted>1</tilted></_>
    <_>
      <rects>
        <_>
          16 8 27 21 -1.</_>
        <_>
          25 15 9 7 9.</_></rects>
      <tilted>0</tilted></_>
    <_>
      <rects>
        <_>
          16 14 8 24 -1.</_>
        <_>
          18 14 4 24 2.</_></rects>
      <tilted>0</tilted></_>
    <_>
      <rects>
        <_>
          16 16 2 3 -1.</_>
        <_>
          17 16 1 3 2.</_></rects>
      <tilted>0</tilted></_>
    <_>
      <rects>
        <_>
          16 18 25 30 -1.</_>
        <_>
          16 28 25 10 3.</_></rects>
      <tilted>0</tilted></_>
    <_>
      <rects>
        <_>
          16 24 3 1 -1.</_>
        <_>
          17 24 1 1 3.</_></rects>
      <tilted>0</tilted></_>
    <_>
      <rects>
        <_>
          16 25 1 4 -1.</_>
        <_>
          16 26 1 2 2.</_></rects>
      <tilted>0</tilted></_>
    <_>
      <rects>
        <_>
          16 34 4 3 -1.</_>
        <_>
          17 34 2 3 2.</_></rects>
      <tilted>0</tilted></_>
    <_>
      <rects>
        <_>
          16 34 8 4 -1.</_>
        <_>
          16 34 4 4 2.</_></rects>
      <tilted>1</tilted></_>
    <_>
      <rects>
        <_>
          16 34 27 14 -1.</_>
        <_>
          25 34 9 14 3.</_></rects>
      <tilted>0</tilted></_>
    <_>
      <rects>
        <_>
          17 0 4 17 -1.</_>
        <_>
          18 1 2 17 2.</_></rects>
      <tilted>1</tilted></_>
    <_>
      <rects>
        <_>
          17 2 4 18 -1.</_>
        <_>
          17 2 2 9 2.</_>
        <_>
          19 11 2 9 2.</_></rects>
      <tilted>0</tilted></_>
    <_>
      <rects>
        <_>
          17 13 4 1 -1.</_>
        <_>
          19 13 2 1 2.</_></rects>
      <tilted>0</tilted></_>
    <_>
      <rects>
        <_>
          17 18 2 2 -1.</_>
        <_>
          18 18 1 2 2.</_></rects>
      <tilted>0</tilted></_>
    <_>
      <rects>
        <_>
          17 26 1 2 -1.</_>
        <_>
          17 27 1 1 2.</_></rects>
      <tilted>0</tilted></_>
    <_>
      <rects>
        <_>
          17 29 2 3 -1.</_>
        <_>
          17 29 1 3 2.</_></rects>
      <tilted>1</tilted></_>
    <_>
      <rects>
        <_>
          17 32 1 6 -1.</_>
        <_>
          17 35 1 3 2.</_></rects>
      <tilted>0</tilted></_>
    <_>
      <rects>
        <_>
          17 40 4 2 -1.</_>
        <_>
          17 41 4 1 2.</_></rects>
      <tilted>0</tilted></_>
    <_>
      <rects>
        <_>
          18 0 1 3 -1.</_>
        <_>
          18 1 1 1 3.</_></rects>
      <tilted>0</tilted></_>
    <_>
      <rects>
        <_>
          18 13 2 1 -1.</_>
        <_>
          19 13 1 1 2.</_></rects>
      <tilted>0</tilted></_>
    <_>
      <rects>
        <_>
          18 16 2 1 -1.</_>
        <_>
          19 16 1 1 2.</_></rects>
      <tilted>0</tilted></_>
    <_>
      <rects>
        <_>
          18 22 4 2 -1.</_>
        <_>
          20 22 2 2 2.</_></rects>
      <tilted>0</tilted></_>
    <_>
      <rects>
        <_>
          18 32 2 2 -1.</_>
        <_>
          19 32 1 2 2.</_></rects>
      <tilted>0</tilted></_>
    <_>
      <rects>
        <_>
          18 36 1 2 -1.</_>
        <_>
          18 36 1 1 2.</_></rects>
      <tilted>1</tilted></_>
    <_>
      <rects>
        <_>
          18 43 20 4 -1.</_>
        <_>
          18 45 20 2 2.</_></rects>
      <tilted>0</tilted></_>
    <_>
      <rects>
        <_>
          19 0 10 15 -1.</_>
        <_>
          19 5 10 5 3.</_></rects>
      <tilted>0</tilted></_>
    <_>
      <rects>
        <_>
          19 21 30 6 -1.</_>
        <_>
          29 21 10 6 3.</_></rects>
      <tilted>0</tilted></_>
    <_>
      <rects>
        <_>
          19 35 2 4 -1.</_>
        <_>
          20 35 1 4 2.</_></rects>
      <tilted>0</tilted></_>
    <_>
      <rects>
        <_>
          19 48 10 2 -1.</_>
        <_>
          19 48 5 1 2.</_>
        <_>
          24 49 5 1 2.</_></rects>
      <tilted>0</tilted></_>
    <_>
      <rects>
        <_>
          20 3 24 13 -1.</_>
        <_>
          28 3 8 13 3.</_></rects>
      <tilted>0</tilted></_>
    <_>
      <rects>
        <_>
          20 21 5 3 -1.</_>
        <_>
          20 22 5 1 3.</_></rects>
      <tilted>0</tilted></_>
    <_>
      <rects>
        <_>
          20 47 7 2 -1.</_>
        <_>
          20 48 7 1 2.</_></rects>
      <tilted>0</tilted></_>
    <_>
      <rects>
        <_>
          21 11 6 2 -1.</_>
        <_>
          21 12 6 1 2.</_></rects>
      <tilted>0</tilted></_>
    <_>
      <rects>
        <_>
          21 15 7 3 -1.</_>
        <_>
          21 16 7 1 3.</_></rects>
      <tilted>0</tilted></_>
    <_>
      <rects>
        <_>
          21 16 11 2 -1.</_>
        <_>
          21 17 11 1 2.</_></rects>
      <tilted>0</tilted></_>
    <_>
      <rects>
        <_>
          21 18 12 16 -1.</_>
        <_>
          21 22 12 8 2.</_></rects>
      <tilted>0</tilted></_>
    <_>
      <rects>
        <_>
          21 22 1 4 -1.</_>
        <_>
          21 24 1 2 2.</_></rects>
      <tilted>0</tilted></_>
    <_>
      <rects>
        <_>
          21 22 3 2 -1.</_>
        <_>
          21 23 3 1 2.</_></rects>
      <tilted>0</tilted></_>
    <_>
      <rects>
        <_>
          21 32 3 3 -1.</_>
        <_>
          21 33 3 1 3.</_></rects>
      <tilted>0</tilted></_>
    <_>
      <rects>
        <_>
          21 34 3 1 -1.</_>
        <_>
          22 35 1 1 3.</_></rects>
      <tilted>1</tilted></_>
    <_>
      <rects>
        <_>
          21 43 1 6 -1.</_>
        <_>
          21 45 1 2 3.</_></rects>
      <tilted>0</tilted></_>
    <_>
      <rects>
        <_>
          22 17 2 2 -1.</_>
        <_>
          23 17 1 2 2.</_></rects>
      <tilted>0</tilted></_>
    <_>
      <rects>
        <_>
          22 19 6 10 -1.</_>
        <_>
          22 19 3 5 2.</_>
        <_>
          25 24 3 5 2.</_></rects>
      <tilted>0</tilted></_>
    <_>
      <rects>
        <_>
          22 23 2 1 -1.</_>
        <_>
          23 23 1 1 2.</_></rects>
      <tilted>0</tilted></_>
    <_>
      <rects>
        <_>
          22 29 2 2 -1.</_>
        <_>
          22 30 2 1 2.</_></rects>
      <tilted>0</tilted></_>
    <_>
      <rects>
        <_>
          22 31 9 3 -1.</_>
        <_>
          25 32 3 1 9.</_></rects>
      <tilted>0</tilted></_>
    <_>
      <rects>
        <_>
          22 32 1 4 -1.</_>
        <_>
          22 34 1 2 2.</_></rects>
      <tilted>0</tilted></_>
    <_>
      <rects>
        <_>
          22 32 2 3 -1.</_>
        <_>
          22 33 2 1 3.</_></rects>
      <tilted>0</tilted></_>
    <_>
      <rects>
        <_>
          22 37 3 4 -1.</_>
        <_>
          22 39 3 2 2.</_></rects>
      <tilted>0</tilted></_>
    <_>
      <rects>
        <_>
          22 39 2 3 -1.</_>
        <_>
          23 39 1 3 2.</_></rects>
      <tilted>0</tilted></_>
    <_>
      <rects>
        <_>
          23 16 12 24 -1.</_>
        <_>
          27 24 4 8 9.</_></rects>
      <tilted>0</tilted></_>
    <_>
      <rects>
        <_>
          23 29 5 4 -1.</_>
        <_>
          23 30 5 2 2.</_></rects>
      <tilted>0</tilted></_>
    <_>
      <rects>
        <_>
          24 0 3 20 -1.</_>
        <_>
          24 0 3 10 2.</_></rects>
      <tilted>1</tilted></_>
    <_>
      <rects>
        <_>
          24 7 2 1 -1.</_>
        <_>
          24 7 1 1 2.</_></rects>
      <tilted>1</tilted></_>
    <_>
      <rects>
        <_>
          24 15 24 8 -1.</_>
        <_>
          30 21 12 8 2.</_></rects>
      <tilted>1</tilted></_>
    <_>
      <rects>
        <_>
          24 16 2 14 -1.</_>
        <_>
          24 23 2 7 2.</_></rects>
      <tilted>0</tilted></_>
    <_>
      <rects>
        <_>
          24 21 1 4 -1.</_>
        <_>
          24 23 1 2 2.</_></rects>
      <tilted>0</tilted></_>
    <_>
      <rects>
        <_>
          24 23 2 2 -1.</_>
        <_>
          24 23 2 1 2.</_></rects>
      <tilted>1</tilted></_>
    <_>
      <rects>
        <_>
          24 25 1 2 -1.</_>
        <_>
          24 26 1 1 2.</_></rects>
      <tilted>0</tilted></_>
    <_>
      <rects>
        <_>
          24 25 3 3 -1.</_>
        <_>
          25 26 1 1 9.</_></rects>
      <tilted>0</tilted></_>
    <_>
      <rects>
        <_>
          24 29 3 3 -1.</_>
        <_>
          24 30 3 1 3.</_></rects>
      <tilted>0</tilted></_>
    <_>
      <rects>
        <_>
          24 31 3 1 -1.</_>
        <_>
          25 31 1 1 3.</_></rects>
      <tilted>0</tilted></_>
    <_>
      <rects>
        <_>
          24 31 3 2 -1.</_>
        <_>
          25 31 1 2 3.</_></rects>
      <tilted>0</tilted></_>
    <_>
      <rects>
        <_>
          24 35 1 2 -1.</_>
        <_>
          24 36 1 1 2.</_></rects>
      <tilted>0</tilted></_>
    <_>
      <rects>
        <_>
          24 41 1 2 -1.</_>
        <_>
          24 42 1 1 2.</_></rects>
      <tilted>0</tilted></_>
    <_>
      <rects>
        <_>
          25 17 2 2 -1.</_>
        <_>
          26 17 1 2 2.</_></rects>
      <tilted>0</tilted></_>
    <_>
      <rects>
        <_>
          25 17 4 2 -1.</_>
        <_>
          27 17 2 2 2.</_></rects>
      <tilted>0</tilted></_>
    <_>
      <rects>
        <_>
          25 27 2 1 -1.</_>
        <_>
          25 27 1 1 2.</_></rects>
      <tilted>1</tilted></_>
    <_>
      <rects>
        <_>
          25 27 22 3 -1.</_>
        <_>
          36 27 11 3 2.</_></rects>
      <tilted>0</tilted></_>
    <_>
      <rects>
        <_>
          25 31 1 2 -1.</_>
        <_>
          25 32 1 1 2.</_></rects>
      <tilted>0</tilted></_>
    <_>
      <rects>
        <_>
          25 31 4 2 -1.</_>
        <_>
          25 31 2 1 2.</_>
        <_>
          27 32 2 1 2.</_></rects>
      <tilted>0</tilted></_>
    <_>
      <rects>
        <_>
          25 33 1 2 -1.</_>
        <_>
          25 34 1 1 2.</_></rects>
      <tilted>0</tilted></_>
    <_>
      <rects>
        <_>
          25 37 4 3 -1.</_>
        <_>
          26 37 2 3 2.</_></rects>
      <tilted>0</tilted></_>
    <_>
      <rects>
        <_>
